network unknown {
}
variable komm {
  type discrete [ 5 ] { state0, state1, state2, state3, state4 };
}
variable nedbarea {
  type discrete [ 3 ] { x1___375_, x2__375_500_, x3___500_ };
}
variable nmin {
  type discrete [ 6 ] { x0_15, x15_30, x30_45, x45_60, x60_75, x_75 };
}
variable aar_mod {
  type discrete [ 11 ] { x_25, x_20, x_15, x_10, x_5, x0, x5, x10, x15, x20, x25 };
}
variable jordn {
  type discrete [ 9 ] { x0_15, x15_30, x30_45, x45_60, x60_75, x75_90, x90_105, x105_120, x_120 };
}
variable mod_nmin {
  type discrete [ 6 ] { x0_15, x15_30, x30_45, x45_60, x60_75, x_75 };
}
variable ngodnt {
  type discrete [ 10 ] { x_45, x45_60, x60_75, x75_90, x90_105, x105_120, x120_135, x135_150, x150_165, x_165 };
}
variable ngodnn {
  type discrete [ 10 ] { x_45, x45_60, x60_75, x75_90, x90_105, x105_120, x120_135, x135_150, x150_165, x_165 };
}
variable ngodn {
  type discrete [ 10 ] { x_45, x45_60, x60_75, x75_90, x90_105, x105_120, x120_135, x135_150, x150_165, x_165 };
}
variable nprot {
  type discrete [ 8 ] { x_40, x40_60, x60_80, x80_100, x100_120, x120_140, x140_160, x_160 };
}
variable ngtilg {
  type discrete [ 10 ] { x_45, x45_60, x60_75, x75_90, x90_105, x105_120, x120_135, x135_150, x150_165, x_165 };
}
variable ntilg {
  type discrete [ 10 ] { x_75, x75_90, x90_105, x105_120, x120_135, x135_150, x150_165, x165_180, x180_195, x_195 };
}
variable aks_m2 {
  type discrete [ 8 ] { x_350, x350_450, x450_550, x550_650, x650_750, x750_950, x950_1150, x_1150 };
}
variable keraks {
  type discrete [ 7 ] { x_13, x13_15, x15_17, x17_19, x19_21, x21_23, x_23 };
}
variable aks_vgt {
  type discrete [ 9 ] { x_550, x550_600, x600_650, x650_700, x700_750, x750_850, x850_950, x950_1050, x_1050 };
}
variable ksort {
  type discrete [ 5 ] { x_85, x85_90, x90_95, x95_98, x_98 };
}
variable protein {
  type discrete [ 8 ] { x_9, x9_0_9_5, x9_5_10_0, x10_0_10_5, x10_5_11_0, x11_0_11_5, x11_5_12_0, x_12_0 };
}
variable udb {
  type discrete [ 9 ] { x_30, x30_40, x40_50, x50_55, x55_60, x60_65, x65_70, x70_80, x_80 };
}
variable spndx {
  type discrete [ 4 ] { x_7, x7_8, x8_9, x9_10 };
}
variable tkv {
  type discrete [ 8 ] { x_35, x35_40, x40_42_5, x42_5_45, x45_47_5, x47_5_50, x50_55, x_55 };
}
variable slt22 {
  type discrete [ 4 ] { x0_1, x1_2, x2_3, x3_5 };
}
variable s2225 {
  type discrete [ 4 ] { x0_1, x1_5, x5_10, x10_15 };
}
variable s2528 {
  type discrete [ 20 ] { x0_5, x5_10, x10_15, x15_20, x20_25, x25_30, x30_35, x35_40, x40_45, x45_50, x50_55, x55_60, x60_65, x65_70, x70_75, x75_80, x80_85, x85_90, x90_95, x95_100 };
}
probability ( komm ) {
  table 0.2, 0.2, 0.2, 0.2, 0.2;
}
probability ( nedbarea | komm ){
  (state0) 0.3333333, 0.3333333, 0.3333333;
  (state1) 0.3333333, 0.3333333, 0.3333333;
  (state2) 0.3333333, 0.3333333, 0.3333333;
  (state3) 0.3333333, 0.3333333, 0.3333333;
  (state4) 0.3333333, 0.3333333, 0.3333333;
}
probability ( nmin | nedbarea ){
(x1___375_) 0.49980008, 0.49980008, 0.00009996, 0.00009996, 0.00009996, 0.00009996;
(x2__375_500_) 0.49980008, 0.49980008, 0.00009996, 0.00009996, 0.00009996, 0.00009996;
(x3___500_) 0.49980008, 0.49980008, 0.00009996, 0.00009996, 0.00009996, 0.00009996;
}
probability ( aar_mod | komm ){
(state0) 0.09090909, 0.09090909, 0.09090909, 0.09090909, 0.09090909, 0.09090909, 0.09090909, 0.09090909, 0.09090909, 0.09090909, 0.09090909;
(state1) 0.09090909, 0.09090909, 0.09090909, 0.09090909, 0.09090909, 0.09090909, 0.09090909, 0.09090909, 0.09090909, 0.09090909, 0.09090909;
(state2) 0.09090909, 0.09090909, 0.09090909, 0.09090909, 0.09090909, 0.09090909, 0.09090909, 0.09090909, 0.09090909, 0.09090909, 0.09090909;
(state3) 0.09090909, 0.09090909, 0.09090909, 0.09090909, 0.09090909, 0.09090909, 0.09090909, 0.09090909, 0.09090909, 0.09090909, 0.09090909;
(state4) 0.09090909, 0.09090909, 0.09090909, 0.09090909, 0.09090909, 0.09090909, 0.09090909, 0.09090909, 0.09090909, 0.09090909, 0.09090909;
}
probability ( jordn | nmin, aar_mod ){
(x0_15, x_25) 0.00009992, 0.00009992, 0.99920064, 0.00009992, 0.00009992, 0.00009992, 0.00009992, 0.00009992, 0.00009992;
(x15_30, x_25) 0.00009992, 0.00009992, 0.00009992, 0.99920064, 0.00009992, 0.00009992, 0.00009992, 0.00009992, 0.00009992;
(x30_45, x_25) 0.00009992, 0.00009992, 0.00009992, 0.00009992, 0.99920064, 0.00009992, 0.00009992, 0.00009992, 0.00009992;
(x45_60, x_25) 0.00009992, 0.00009992, 0.00009992, 0.00009992, 0.00009992, 0.99920064, 0.00009992, 0.00009992, 0.00009992;
(x60_75, x_25) 0.00009992, 0.00009992, 0.00009992, 0.00009992, 0.00009992, 0.00009992, 0.99920064, 0.00009992, 0.00009992;
(x_75, x_25) 0.00009992, 0.00009992, 0.00009992, 0.00009992, 0.00009992, 0.00009992, 0.00009992, 0.99920064, 0.00009992;
(x0_15, x_20) 0.00009992, 0.00009992, 0.99920064, 0.00009992, 0.00009992, 0.00009992, 0.00009992, 0.00009992, 0.00009992;
(x15_30, x_20) 0.00009992, 0.00009992, 0.00009992, 0.99920064, 0.00009992, 0.00009992, 0.00009992, 0.00009992, 0.00009992;
(x30_45, x_20) 0.00009992, 0.00009992, 0.00009992, 0.00009992, 0.99920064, 0.00009992, 0.00009992, 0.00009992, 0.00009992;
(x45_60, x_20) 0.00009992, 0.00009992, 0.00009992, 0.00009992, 0.00009992, 0.99920064, 0.00009992, 0.00009992, 0.00009992;
(x60_75, x_20) 0.00009992, 0.00009992, 0.00009992, 0.00009992, 0.00009992, 0.00009992, 0.99920064, 0.00009992, 0.00009992;
(x_75, x_20) 0.00009992, 0.00009992, 0.00009992, 0.00009992, 0.00009992, 0.00009992, 0.00009992, 0.99920064, 0.00009992;
(x0_15, x_15) 0.00009993, 0.49965024, 0.49965024, 0.00009993, 0.00009993, 0.00009993, 0.00009993, 0.00009993, 0.00009993;
(x15_30, x_15) 0.00009993, 0.00009993, 0.49965024, 0.49965024, 0.00009993, 0.00009993, 0.00009993, 0.00009993, 0.00009993;
(x30_45, x_15) 0.00009993, 0.00009993, 0.00009993, 0.49965024, 0.49965024, 0.00009993, 0.00009993, 0.00009993, 0.00009993;
(x45_60, x_15) 0.00009993, 0.00009993, 0.00009993, 0.00009993, 0.49965024, 0.49965024, 0.00009993, 0.00009993, 0.00009993;
(x60_75, x_15) 0.00009993, 0.00009993, 0.00009993, 0.00009993, 0.00009993, 0.49965024, 0.49965024, 0.00009993, 0.00009993;
(x_75, x_15) 0.00009992, 0.00009992, 0.00009992, 0.00009992, 0.00009992, 0.00009992, 0.00009992, 0.99920064, 0.00009992;
(x0_15, x_10) 0.00009992, 0.99920064, 0.00009992, 0.00009992, 0.00009992, 0.00009992, 0.00009992, 0.00009992, 0.00009992;
(x15_30, x_10) 0.00009992, 0.00009992, 0.99920064, 0.00009992, 0.00009992, 0.00009992, 0.00009992, 0.00009992, 0.00009992;
(x30_45, x_10) 0.00009992, 0.00009992, 0.00009992, 0.99920064, 0.00009992, 0.00009992, 0.00009992, 0.00009992, 0.00009992;
(x45_60, x_10) 0.00009992, 0.00009992, 0.00009992, 0.00009992, 0.99920064, 0.00009992, 0.00009992, 0.00009992, 0.00009992;
(x60_75, x_10) 0.00009992, 0.00009992, 0.00009992, 0.00009992, 0.00009992, 0.99920064, 0.00009992, 0.00009992, 0.00009992;
(x_75, x_10) 0.00009992, 0.00009992, 0.00009992, 0.00009992, 0.00009992, 0.00009992, 0.99920064, 0.00009992, 0.00009992;
(x0_15, x_5) 0.00009992, 0.99920064, 0.00009992, 0.00009992, 0.00009992, 0.00009992, 0.00009992, 0.00009992, 0.00009992;
(x15_30, x_5) 0.00009992, 0.00009992, 0.99920064, 0.00009992, 0.00009992, 0.00009992, 0.00009992, 0.00009992, 0.00009992;
(x30_45, x_5) 0.00009992, 0.00009992, 0.00009992, 0.99920064, 0.00009992, 0.00009992, 0.00009992, 0.00009992, 0.00009992;
(x45_60, x_5) 0.00009992, 0.00009992, 0.00009992, 0.00009992, 0.99920064, 0.00009992, 0.00009992, 0.00009992, 0.00009992;
(x60_75, x_5) 0.00009992, 0.00009992, 0.00009992, 0.00009992, 0.00009992, 0.99920064, 0.00009992, 0.00009992, 0.00009992;
(x_75, x_5) 0.00009992, 0.00009992, 0.00009992, 0.00009992, 0.00009992, 0.00009992, 0.99920064, 0.00009992, 0.00009992;
(x0_15, x0) 0.49965024, 0.49965024, 0.00009993, 0.00009993, 0.00009993, 0.00009993, 0.00009993, 0.00009993, 0.00009993;
(x15_30, x0) 0.00009993, 0.49965024, 0.49965024, 0.00009993, 0.00009993, 0.00009993, 0.00009993, 0.00009993, 0.00009993;
(x30_45, x0) 0.00009993, 0.00009993, 0.49965024, 0.49965024, 0.00009993, 0.00009993, 0.00009993, 0.00009993, 0.00009993;
(x45_60, x0) 0.00009993, 0.00009993, 0.00009993, 0.49965024, 0.49965024, 0.00009993, 0.00009993, 0.00009993, 0.00009993;
(x60_75, x0) 0.00009993, 0.00009993, 0.00009993, 0.00009993, 0.49965024, 0.49965024, 0.00009993, 0.00009993, 0.00009993;
(x_75, x0) 0.00009992, 0.00009992, 0.00009992, 0.00009992, 0.00009992, 0.00009992, 0.99920064, 0.00009992, 0.00009992;
(x0_15, x5) 0.99920064, 0.00009992, 0.00009992, 0.00009992, 0.00009992, 0.00009992, 0.00009992, 0.00009992, 0.00009992;
(x15_30, x5) 0.00009992, 0.99920064, 0.00009992, 0.00009992, 0.00009992, 0.00009992, 0.00009992, 0.00009992, 0.00009992;
(x30_45, x5) 0.00009992, 0.00009992, 0.99920064, 0.00009992, 0.00009992, 0.00009992, 0.00009992, 0.00009992, 0.00009992;
(x45_60, x5) 0.00009992, 0.00009992, 0.00009992, 0.99920064, 0.00009992, 0.00009992, 0.00009992, 0.00009992, 0.00009992;
(x60_75, x5) 0.00009992, 0.00009992, 0.00009992, 0.00009992, 0.99920064, 0.00009992, 0.00009992, 0.00009992, 0.00009992;
(x_75, x5) 0.00009992, 0.00009992, 0.00009992, 0.00009992, 0.00009992, 0.99920064, 0.00009992, 0.00009992, 0.00009992;
(x0_15, x10) 0.99920064, 0.00009992, 0.00009992, 0.00009992, 0.00009992, 0.00009992, 0.00009992, 0.00009992, 0.00009992;
(x15_30, x10) 0.00009992, 0.99920064, 0.00009992, 0.00009992, 0.00009992, 0.00009992, 0.00009992, 0.00009992, 0.00009992;
(x30_45, x10) 0.00009992, 0.00009992, 0.99920064, 0.00009992, 0.00009992, 0.00009992, 0.00009992, 0.00009992, 0.00009992;
(x45_60, x10) 0.00009992, 0.00009992, 0.00009992, 0.99920064, 0.00009992, 0.00009992, 0.00009992, 0.00009992, 0.00009992;
(x60_75, x10) 0.00009992, 0.00009992, 0.00009992, 0.00009992, 0.99920064, 0.00009992, 0.00009992, 0.00009992, 0.00009992;
(x_75, x10) 0.00009992, 0.00009992, 0.00009992, 0.00009992, 0.00009992, 0.99920064, 0.00009992, 0.00009992, 0.00009992;
(x0_15, x15) 0.99920064, 0.00009992, 0.00009992, 0.00009992, 0.00009992, 0.00009992, 0.00009992, 0.00009992, 0.00009992;
(x15_30, x15) 0.49965024, 0.49965024, 0.00009993, 0.00009993, 0.00009993, 0.00009993, 0.00009993, 0.00009993, 0.00009993;
(x30_45, x15) 0.00009993, 0.49965024, 0.49965024, 0.00009993, 0.00009993, 0.00009993, 0.00009993, 0.00009993, 0.00009993;
(x45_60, x15) 0.00009993, 0.00009993, 0.49965024, 0.49965024, 0.00009993, 0.00009993, 0.00009993, 0.00009993, 0.00009993;
(x60_75, x15) 0.00009993, 0.00009993, 0.00009993, 0.49965024, 0.49965024, 0.00009993, 0.00009993, 0.00009993, 0.00009993;
(x_75, x15) 0.00009992, 0.00009992, 0.00009992, 0.00009992, 0.00009992, 0.99920064, 0.00009992, 0.00009992, 0.00009992;
(x0_15, x20) 0.99920064, 0.00009992, 0.00009992, 0.00009992, 0.00009992, 0.00009992, 0.00009992, 0.00009992, 0.00009992;
(x15_30, x20) 0.99920064, 0.00009992, 0.00009992, 0.00009992, 0.00009992, 0.00009992, 0.00009992, 0.00009992, 0.00009992;
(x30_45, x20) 0.00009992, 0.99920064, 0.00009992, 0.00009992, 0.00009992, 0.00009992, 0.00009992, 0.00009992, 0.00009992;
(x45_60, x20) 0.00009992, 0.00009992, 0.99920064, 0.00009992, 0.00009992, 0.00009992, 0.00009992, 0.00009992, 0.00009992;
(x60_75, x20) 0.00009992, 0.00009992, 0.00009992, 0.99920064, 0.00009992, 0.00009992, 0.00009992, 0.00009992, 0.00009992;
(x_75, x20) 0.00009992, 0.00009992, 0.00009992, 0.00009992, 0.99920064, 0.00009992, 0.00009992, 0.00009992, 0.00009992;
(x0_15, x25) 0.99920064, 0.00009992, 0.00009992, 0.00009992, 0.00009992, 0.00009992, 0.00009992, 0.00009992, 0.00009992;
(x15_30, x25) 0.99920064, 0.00009992, 0.00009992, 0.00009992, 0.00009992, 0.00009992, 0.00009992, 0.00009992, 0.00009992;
(x30_45, x25) 0.00009992, 0.99920064, 0.00009992, 0.00009992, 0.00009992, 0.00009992, 0.00009992, 0.00009992, 0.00009992;
(x45_60, x25) 0.00009992, 0.00009992, 0.99920064, 0.00009992, 0.00009992, 0.00009992, 0.00009992, 0.00009992, 0.00009992;
(x60_75, x25) 0.00009992, 0.00009992, 0.00009992, 0.99920064, 0.00009992, 0.00009992, 0.00009992, 0.00009992, 0.00009992;
(x_75, x25) 0.00009992, 0.00009992, 0.00009992, 0.00009992, 0.99920064, 0.00009992, 0.00009992, 0.00009992, 0.00009992;
}
probability ( mod_nmin | nmin, aar_mod ){
  (x0_15, x_25) 0.00009995, 0.00009995, 0.99950025, 0.00009995, 0.00009995, 0.00009995;
  (x15_30, x_25) 0.00009995, 0.00009995, 0.00009995, 0.99950025, 0.00009995, 0.00009995;
  (x30_45, x_25) 0.00009995, 0.00009995, 0.00009995, 0.00009995, 0.99950025, 0.00009995;
  (x45_60, x_25) 0.00009995, 0.00009995, 0.00009995, 0.00009995, 0.00009995, 0.99950025;
  (x60_75, x_25) 0.00009995, 0.00009995, 0.00009995, 0.00009995, 0.00009995, 0.99950025;
  (x_75, x_25) 0.00009995, 0.00009995, 0.00009995, 0.00009995, 0.00009995, 0.99950025;
  (x0_15, x_20) 0.00009995, 0.99950025, 0.00009995, 0.00009995, 0.00009995, 0.00009995;
  (x15_30, x_20) 0.00009995, 0.00009995, 0.99950025, 0.00009995, 0.00009995, 0.00009995;
  (x30_45, x_20) 0.00009995, 0.00009995, 0.00009995, 0.99950025, 0.00009995, 0.00009995;
  (x45_60, x_20) 0.00009995, 0.00009995, 0.00009995, 0.00009995, 0.99950025, 0.00009995;
  (x60_75, x_20) 0.00009995, 0.00009995, 0.00009995, 0.00009995, 0.00009995, 0.99950025;
  (x_75, x_20) 0.00009995, 0.00009995, 0.00009995, 0.00009995, 0.00009995, 0.99950025;
  (x0_15, x_15) 0.00009995, 0.99950025, 0.00009995, 0.00009995, 0.00009995, 0.00009995;
  (x15_30, x_15) 0.00009995, 0.00009995, 0.99950025, 0.00009995, 0.00009995, 0.00009995;
  (x30_45, x_15) 0.00009995, 0.00009995, 0.00009995, 0.99950025, 0.00009995, 0.00009995;
  (x45_60, x_15) 0.00009995, 0.00009995, 0.00009995, 0.00009995, 0.99950025, 0.00009995;
  (x60_75, x_15) 0.00009995, 0.00009995, 0.00009995, 0.00009995, 0.00009995, 0.99950025;
  (x_75, x_15) 0.00009995, 0.00009995, 0.00009995, 0.00009995, 0.00009995, 0.99950025;
  (x0_15, x_10) 0.00009995, 0.99950025, 0.00009995, 0.00009995, 0.00009995, 0.00009995;
  (x15_30, x_10) 0.00009995, 0.00009995, 0.99950025, 0.00009995, 0.00009995, 0.00009995;
  (x30_45, x_10) 0.00009995, 0.00009995, 0.00009995, 0.99950025, 0.00009995, 0.00009995;
  (x45_60, x_10) 0.00009995, 0.00009995, 0.00009995, 0.00009995, 0.99950025, 0.00009995;
  (x60_75, x_10) 0.00009995, 0.00009995, 0.00009995, 0.00009995, 0.00009995, 0.99950025;
  (x_75, x_10) 0.00009995, 0.00009995, 0.00009995, 0.00009995, 0.00009995, 0.99950025;
  (x0_15, x_5) 0.99950025, 0.00009995, 0.00009995, 0.00009995, 0.00009995, 0.00009995;
  (x15_30, x_5) 0.00009995, 0.99950025, 0.00009995, 0.00009995, 0.00009995, 0.00009995;
  (x30_45, x_5) 0.00009995, 0.00009995, 0.99950025, 0.00009995, 0.00009995, 0.00009995;
  (x45_60, x_5) 0.00009995, 0.00009995, 0.00009995, 0.99950025, 0.00009995, 0.00009995;
  (x60_75, x_5) 0.00009995, 0.00009995, 0.00009995, 0.00009995, 0.99950025, 0.00009995;
  (x_75, x_5) 0.00009995, 0.00009995, 0.00009995, 0.00009995, 0.00009995, 0.99950025;
  (x0_15, x0) 0.99950025, 0.00009995, 0.00009995, 0.00009995, 0.00009995, 0.00009995;
  (x15_30, x0) 0.00009995, 0.99950025, 0.00009995, 0.00009995, 0.00009995, 0.00009995;
  (x30_45, x0) 0.00009995, 0.00009995, 0.99950025, 0.00009995, 0.00009995, 0.00009995;
  (x45_60, x0) 0.00009995, 0.00009995, 0.00009995, 0.99950025, 0.00009995, 0.00009995;
  (x60_75, x0) 0.00009995, 0.00009995, 0.00009995, 0.00009995, 0.99950025, 0.00009995;
  (x_75, x0) 0.00009995, 0.00009995, 0.00009995, 0.00009995, 0.00009995, 0.99950025;
  (x0_15, x5) 0.99950025, 0.00009995, 0.00009995, 0.00009995, 0.00009995, 0.00009995;
  (x15_30, x5) 0.00009995, 0.99950025, 0.00009995, 0.00009995, 0.00009995, 0.00009995;
  (x30_45, x5) 0.00009995, 0.00009995, 0.99950025, 0.00009995, 0.00009995, 0.00009995;
  (x45_60, x5) 0.00009995, 0.00009995, 0.00009995, 0.99950025, 0.00009995, 0.00009995;
  (x60_75, x5) 0.00009995, 0.00009995, 0.00009995, 0.00009995, 0.99950025, 0.00009995;
  (x_75, x5) 0.00009995, 0.00009995, 0.00009995, 0.00009995, 0.00009995, 0.99950025;
  (x0_15, x10) 0.99950025, 0.00009995, 0.00009995, 0.00009995, 0.00009995, 0.00009995;
  (x15_30, x10) 0.99950025, 0.00009995, 0.00009995, 0.00009995, 0.00009995, 0.00009995;
  (x30_45, x10) 0.00009995, 0.99950025, 0.00009995, 0.00009995, 0.00009995, 0.00009995;
  (x45_60, x10) 0.00009995, 0.00009995, 0.99950025, 0.00009995, 0.00009995, 0.00009995;
  (x60_75, x10) 0.00009995, 0.00009995, 0.00009995, 0.99950025, 0.00009995, 0.00009995;
  (x_75, x10) 0.00009996, 0.00009996, 0.00009996, 0.00009996, 0.49980008, 0.49980008;
  (x0_15, x15) 0.99950025, 0.00009995, 0.00009995, 0.00009995, 0.00009995, 0.00009995;
  (x15_30, x15) 0.99950025, 0.00009995, 0.00009995, 0.00009995, 0.00009995, 0.00009995;
  (x30_45, x15) 0.00009995, 0.99950025, 0.00009995, 0.00009995, 0.00009995, 0.00009995;
  (x45_60, x15) 0.00009995, 0.00009995, 0.99950025, 0.00009995, 0.00009995, 0.00009995;
  (x60_75, x15) 0.00009995, 0.00009995, 0.00009995, 0.99950025, 0.00009995, 0.00009995;
  (x_75, x15) 0.00009995, 0.00009995, 0.00009995, 0.00009995, 0.99950025, 0.00009995;
  (x0_15, x20) 0.99950025, 0.00009995, 0.00009995, 0.00009995, 0.00009995, 0.00009995;
  (x15_30, x20) 0.99950025, 0.00009995, 0.00009995, 0.00009995, 0.00009995, 0.00009995;
  (x30_45, x20) 0.00009995, 0.99950025, 0.00009995, 0.00009995, 0.00009995, 0.00009995;
  (x45_60, x20) 0.00009995, 0.00009995, 0.99950025, 0.00009995, 0.00009995, 0.00009995;
  (x60_75, x20) 0.00009995, 0.00009995, 0.00009995, 0.99950025, 0.00009995, 0.00009995;
  (x_75, x20) 0.00009995, 0.00009995, 0.00009995, 0.00009995, 0.99950025, 0.00009995;
  (x0_15, x25) 0.99950025, 0.00009995, 0.00009995, 0.00009995, 0.00009995, 0.00009995;
  (x15_30, x25) 0.99950025, 0.00009995, 0.00009995, 0.00009995, 0.00009995, 0.00009995;
  (x30_45, x25) 0.99950025, 0.00009995, 0.00009995, 0.00009995, 0.00009995, 0.00009995;
  (x45_60, x25) 0.00009995, 0.99950025, 0.00009995, 0.00009995, 0.00009995, 0.00009995;
  (x60_75, x25) 0.00009995, 0.00009995, 0.99950025, 0.00009995, 0.00009995, 0.00009995;
  (x_75, x25) 0.00009996, 0.00009996, 0.00009996, 0.49980008, 0.49980008, 0.00009996;
}
probability ( ngodnt | mod_nmin ){
(x0_15) 0.00009991, 0.00009991, 0.00009991, 0.00009991, 0.99910081, 0.00009991, 0.00009991, 0.00009991, 0.00009991, 0.00009991;
(x15_30) 0.00009991, 0.00009991, 0.00009991, 0.99910081, 0.00009991, 0.00009991, 0.00009991, 0.00009991, 0.00009991, 0.00009991;
(x30_45) 0.00009991, 0.00009991, 0.99910081, 0.00009991, 0.00009991, 0.00009991, 0.00009991, 0.00009991, 0.00009991, 0.00009991;
(x45_60) 0.00009991, 0.99910081, 0.00009991, 0.00009991, 0.00009991, 0.00009991, 0.00009991, 0.00009991, 0.00009991, 0.00009991;
(x60_75) 0.99910081, 0.00009991, 0.00009991, 0.00009991, 0.00009991, 0.00009991, 0.00009991, 0.00009991, 0.00009991, 0.00009991;
(x_75) 0.99910081, 0.00009991, 0.00009991, 0.00009991, 0.00009991, 0.00009991, 0.00009991, 0.00009991, 0.00009991, 0.00009991;
}
probability ( ngodnn | jordn ){
(x0_15) 0.00009991, 0.00009991, 0.00009991, 0.00009991, 0.99910081, 0.00009991, 0.00009991, 0.00009991, 0.00009991, 0.00009991;
(x15_30) 0.00009991, 0.00009991, 0.00009991, 0.99910081, 0.00009991, 0.00009991, 0.00009991, 0.00009991, 0.00009991, 0.00009991;
(x30_45) 0.00009991, 0.00009991, 0.99910081, 0.00009991, 0.00009991, 0.00009991, 0.00009991, 0.00009991, 0.00009991, 0.00009991;
(x45_60) 0.00009991, 0.99910081, 0.00009991, 0.00009991, 0.00009991, 0.00009991, 0.00009991, 0.00009991, 0.00009991, 0.00009991;
(x60_75) 0.99910081, 0.00009991, 0.00009991, 0.00009991, 0.00009991, 0.00009991, 0.00009991, 0.00009991, 0.00009991, 0.00009991;
(x75_90) 0.99910081, 0.00009991, 0.00009991, 0.00009991, 0.00009991, 0.00009991, 0.00009991, 0.00009991, 0.00009991, 0.00009991;
(x90_105) 0.99910081, 0.00009991, 0.00009991, 0.00009991, 0.00009991, 0.00009991, 0.00009991, 0.00009991, 0.00009991, 0.00009991;
(x105_120) 0.99910081, 0.00009991, 0.00009991, 0.00009991, 0.00009991, 0.00009991, 0.00009991, 0.00009991, 0.00009991, 0.00009991;
(x_120) 0.99910081, 0.00009991, 0.00009991, 0.00009991, 0.00009991, 0.00009991, 0.00009991, 0.00009991, 0.00009991, 0.00009991;
}
probability ( ngodn | ngodnt, ngodnn ){
  (x_45, x_45) 0.99910081, 0.00009991, 0.00009991, 0.00009991, 0.00009991, 0.00009991, 0.00009991, 0.00009991, 0.00009991, 0.00009991;
  (x45_60, x_45) 0.99910081, 0.00009991, 0.00009991, 0.00009991, 0.00009991, 0.00009991, 0.00009991, 0.00009991, 0.00009991, 0.00009991;
  (x60_75, x_45) 0.99910081, 0.00009991, 0.00009991, 0.00009991, 0.00009991, 0.00009991, 0.00009991, 0.00009991, 0.00009991, 0.00009991;
  (x75_90, x_45) 0.99910081, 0.00009991, 0.00009991, 0.00009991, 0.00009991, 0.00009991, 0.00009991, 0.00009991, 0.00009991, 0.00009991;
  (x90_105, x_45) 0.99910081, 0.00009991, 0.00009991, 0.00009991, 0.00009991, 0.00009991, 0.00009991, 0.00009991, 0.00009991, 0.00009991;
  (x105_120, x_45) 0.99910081, 0.00009991, 0.00009991, 0.00009991, 0.00009991, 0.00009991, 0.00009991, 0.00009991, 0.00009991, 0.00009991;
  (x120_135, x_45) 0.99910081, 0.00009991, 0.00009991, 0.00009991, 0.00009991, 0.00009991, 0.00009991, 0.00009991, 0.00009991, 0.00009991;
  (x135_150, x_45) 0.99910081, 0.00009991, 0.00009991, 0.00009991, 0.00009991, 0.00009991, 0.00009991, 0.00009991, 0.00009991, 0.00009991;
  (x150_165, x_45) 0.99910081, 0.00009991, 0.00009991, 0.00009991, 0.00009991, 0.00009991, 0.00009991, 0.00009991, 0.00009991, 0.00009991;
  (x_165, x_45) 0.99910081, 0.00009991, 0.00009991, 0.00009991, 0.00009991, 0.00009991, 0.00009991, 0.00009991, 0.00009991, 0.00009991;
  (x_45, x45_60) 0.99910081, 0.00009991, 0.00009991, 0.00009991, 0.00009991, 0.00009991, 0.00009991, 0.00009991, 0.00009991, 0.00009991;
  (x45_60, x45_60) 0.00009991, 0.99910081, 0.00009991, 0.00009991, 0.00009991, 0.00009991, 0.00009991, 0.00009991, 0.00009991, 0.00009991;
  (x60_75, x45_60) 0.00009991, 0.99910081, 0.00009991, 0.00009991, 0.00009991, 0.00009991, 0.00009991, 0.00009991, 0.00009991, 0.00009991;
  (x75_90, x45_60) 0.00009991, 0.99910081, 0.00009991, 0.00009991, 0.00009991, 0.00009991, 0.00009991, 0.00009991, 0.00009991, 0.00009991;
  (x90_105, x45_60) 0.00009991, 0.99910081, 0.00009991, 0.00009991, 0.00009991, 0.00009991, 0.00009991, 0.00009991, 0.00009991, 0.00009991;
  (x105_120, x45_60) 0.00009991, 0.99910081, 0.00009991, 0.00009991, 0.00009991, 0.00009991, 0.00009991, 0.00009991, 0.00009991, 0.00009991;
  (x120_135, x45_60) 0.00009991, 0.99910081, 0.00009991, 0.00009991, 0.00009991, 0.00009991, 0.00009991, 0.00009991, 0.00009991, 0.00009991;
  (x135_150, x45_60) 0.00009991, 0.99910081, 0.00009991, 0.00009991, 0.00009991, 0.00009991, 0.00009991, 0.00009991, 0.00009991, 0.00009991;
  (x150_165, x45_60) 0.00009991, 0.99910081, 0.00009991, 0.00009991, 0.00009991, 0.00009991, 0.00009991, 0.00009991, 0.00009991, 0.00009991;
  (x_165, x45_60) 0.00009991, 0.99910081, 0.00009991, 0.00009991, 0.00009991, 0.00009991, 0.00009991, 0.00009991, 0.00009991, 0.00009991;
  (x_45, x60_75) 0.99910081, 0.00009991, 0.00009991, 0.00009991, 0.00009991, 0.00009991, 0.00009991, 0.00009991, 0.00009991, 0.00009991;
  (x45_60, x60_75) 0.00009991, 0.99910081, 0.00009991, 0.00009991, 0.00009991, 0.00009991, 0.00009991, 0.00009991, 0.00009991, 0.00009991;
  (x60_75, x60_75) 0.00009991, 0.00009991, 0.99910081, 0.00009991, 0.00009991, 0.00009991, 0.00009991, 0.00009991, 0.00009991, 0.00009991;
  (x75_90, x60_75) 0.00009991, 0.00009991, 0.99910081, 0.00009991, 0.00009991, 0.00009991, 0.00009991, 0.00009991, 0.00009991, 0.00009991;
  (x90_105, x60_75) 0.00009991, 0.00009991, 0.99910081, 0.00009991, 0.00009991, 0.00009991, 0.00009991, 0.00009991, 0.00009991, 0.00009991;
  (x105_120, x60_75) 0.00009991, 0.00009991, 0.99910081, 0.00009991, 0.00009991, 0.00009991, 0.00009991, 0.00009991, 0.00009991, 0.00009991;
  (x120_135, x60_75) 0.00009991, 0.00009991, 0.99910081, 0.00009991, 0.00009991, 0.00009991, 0.00009991, 0.00009991, 0.00009991, 0.00009991;
  (x135_150, x60_75) 0.00009991, 0.00009991, 0.99910081, 0.00009991, 0.00009991, 0.00009991, 0.00009991, 0.00009991, 0.00009991, 0.00009991;
  (x150_165, x60_75) 0.00009991, 0.00009991, 0.99910081, 0.00009991, 0.00009991, 0.00009991, 0.00009991, 0.00009991, 0.00009991, 0.00009991;
  (x_165, x60_75) 0.00009991, 0.00009991, 0.99910081, 0.00009991, 0.00009991, 0.00009991, 0.00009991, 0.00009991, 0.00009991, 0.00009991;
  (x_45, x75_90) 0.99910081, 0.00009991, 0.00009991, 0.00009991, 0.00009991, 0.00009991, 0.00009991, 0.00009991, 0.00009991, 0.00009991;
  (x45_60, x75_90) 0.00009991, 0.99910081, 0.00009991, 0.00009991, 0.00009991, 0.00009991, 0.00009991, 0.00009991, 0.00009991, 0.00009991;
  (x60_75, x75_90) 0.00009991, 0.00009991, 0.99910081, 0.00009991, 0.00009991, 0.00009991, 0.00009991, 0.00009991, 0.00009991, 0.00009991;
  (x75_90, x75_90) 0.00009991, 0.00009991, 0.00009991, 0.99910081, 0.00009991, 0.00009991, 0.00009991, 0.00009991, 0.00009991, 0.00009991;
  (x90_105, x75_90) 0.00009991, 0.00009991, 0.00009991, 0.99910081, 0.00009991, 0.00009991, 0.00009991, 0.00009991, 0.00009991, 0.00009991;
  (x105_120, x75_90) 0.00009991, 0.00009991, 0.00009991, 0.99910081, 0.00009991, 0.00009991, 0.00009991, 0.00009991, 0.00009991, 0.00009991;
  (x120_135, x75_90) 0.00009991, 0.00009991, 0.00009991, 0.99910081, 0.00009991, 0.00009991, 0.00009991, 0.00009991, 0.00009991, 0.00009991;
  (x135_150, x75_90) 0.00009991, 0.00009991, 0.00009991, 0.99910081, 0.00009991, 0.00009991, 0.00009991, 0.00009991, 0.00009991, 0.00009991;
  (x150_165, x75_90) 0.00009991, 0.00009991, 0.00009991, 0.99910081, 0.00009991, 0.00009991, 0.00009991, 0.00009991, 0.00009991, 0.00009991;
  (x_165, x75_90) 0.00009991, 0.00009991, 0.00009991, 0.99910081, 0.00009991, 0.00009991, 0.00009991, 0.00009991, 0.00009991, 0.00009991;
  (x_45, x90_105) 0.99910081, 0.00009991, 0.00009991, 0.00009991, 0.00009991, 0.00009991, 0.00009991, 0.00009991, 0.00009991, 0.00009991;
  (x45_60, x90_105) 0.00009991, 0.99910081, 0.00009991, 0.00009991, 0.00009991, 0.00009991, 0.00009991, 0.00009991, 0.00009991, 0.00009991;
  (x60_75, x90_105) 0.00009991, 0.00009991, 0.99910081, 0.00009991, 0.00009991, 0.00009991, 0.00009991, 0.00009991, 0.00009991, 0.00009991;
  (x75_90, x90_105) 0.00009991, 0.00009991, 0.00009991, 0.99910081, 0.00009991, 0.00009991, 0.00009991, 0.00009991, 0.00009991, 0.00009991;
  (x90_105, x90_105) 0.00009991, 0.00009991, 0.00009991, 0.00009991, 0.99910081, 0.00009991, 0.00009991, 0.00009991, 0.00009991, 0.00009991;
  (x105_120, x90_105) 0.00009991, 0.00009991, 0.00009991, 0.00009991, 0.99910081, 0.00009991, 0.00009991, 0.00009991, 0.00009991, 0.00009991;
  (x120_135, x90_105) 0.00009991, 0.00009991, 0.00009991, 0.00009991, 0.99910081, 0.00009991, 0.00009991, 0.00009991, 0.00009991, 0.00009991;
  (x135_150, x90_105) 0.00009991, 0.00009991, 0.00009991, 0.00009991, 0.99910081, 0.00009991, 0.00009991, 0.00009991, 0.00009991, 0.00009991;
  (x150_165, x90_105) 0.00009991, 0.00009991, 0.00009991, 0.00009991, 0.99910081, 0.00009991, 0.00009991, 0.00009991, 0.00009991, 0.00009991;
  (x_165, x90_105) 0.00009991, 0.00009991, 0.00009991, 0.00009991, 0.99910081, 0.00009991, 0.00009991, 0.00009991, 0.00009991, 0.00009991;
  (x_45, x105_120) 0.99910081, 0.00009991, 0.00009991, 0.00009991, 0.00009991, 0.00009991, 0.00009991, 0.00009991, 0.00009991, 0.00009991;
  (x45_60, x105_120) 0.00009991, 0.99910081, 0.00009991, 0.00009991, 0.00009991, 0.00009991, 0.00009991, 0.00009991, 0.00009991, 0.00009991;
  (x60_75, x105_120) 0.00009991, 0.00009991, 0.99910081, 0.00009991, 0.00009991, 0.00009991, 0.00009991, 0.00009991, 0.00009991, 0.00009991;
  (x75_90, x105_120) 0.00009991, 0.00009991, 0.00009991, 0.99910081, 0.00009991, 0.00009991, 0.00009991, 0.00009991, 0.00009991, 0.00009991;
  (x90_105, x105_120) 0.00009991, 0.00009991, 0.00009991, 0.00009991, 0.99910081, 0.00009991, 0.00009991, 0.00009991, 0.00009991, 0.00009991;
  (x105_120, x105_120) 0.00009991, 0.00009991, 0.00009991, 0.00009991, 0.00009991, 0.99910081, 0.00009991, 0.00009991, 0.00009991, 0.00009991;
  (x120_135, x105_120) 0.00009991, 0.00009991, 0.00009991, 0.00009991, 0.00009991, 0.99910081, 0.00009991, 0.00009991, 0.00009991, 0.00009991;
  (x135_150, x105_120) 0.00009991, 0.00009991, 0.00009991, 0.00009991, 0.00009991, 0.99910081, 0.00009991, 0.00009991, 0.00009991, 0.00009991;
  (x150_165, x105_120) 0.00009991, 0.00009991, 0.00009991, 0.00009991, 0.00009991, 0.99910081, 0.00009991, 0.00009991, 0.00009991, 0.00009991;
  (x_165, x105_120) 0.00009991, 0.00009991, 0.00009991, 0.00009991, 0.00009991, 0.99910081, 0.00009991, 0.00009991, 0.00009991, 0.00009991;
  (x_45, x120_135) 0.99910081, 0.00009991, 0.00009991, 0.00009991, 0.00009991, 0.00009991, 0.00009991, 0.00009991, 0.00009991, 0.00009991;
  (x45_60, x120_135) 0.00009991, 0.99910081, 0.00009991, 0.00009991, 0.00009991, 0.00009991, 0.00009991, 0.00009991, 0.00009991, 0.00009991;
  (x60_75, x120_135) 0.00009991, 0.00009991, 0.99910081, 0.00009991, 0.00009991, 0.00009991, 0.00009991, 0.00009991, 0.00009991, 0.00009991;
  (x75_90, x120_135) 0.00009991, 0.00009991, 0.00009991, 0.99910081, 0.00009991, 0.00009991, 0.00009991, 0.00009991, 0.00009991, 0.00009991;
  (x90_105, x120_135) 0.00009991, 0.00009991, 0.00009991, 0.00009991, 0.99910081, 0.00009991, 0.00009991, 0.00009991, 0.00009991, 0.00009991;
  (x105_120, x120_135) 0.00009991, 0.00009991, 0.00009991, 0.00009991, 0.00009991, 0.99910081, 0.00009991, 0.00009991, 0.00009991, 0.00009991;
  (x120_135, x120_135) 0.00009991, 0.00009991, 0.00009991, 0.00009991, 0.00009991, 0.00009991, 0.99910081, 0.00009991, 0.00009991, 0.00009991;
  (x135_150, x120_135) 0.00009991, 0.00009991, 0.00009991, 0.00009991, 0.00009991, 0.00009991, 0.99910081, 0.00009991, 0.00009991, 0.00009991;
  (x150_165, x120_135) 0.00009991, 0.00009991, 0.00009991, 0.00009991, 0.00009991, 0.00009991, 0.99910081, 0.00009991, 0.00009991, 0.00009991;
  (x_165, x120_135) 0.00009991, 0.00009991, 0.00009991, 0.00009991, 0.00009991, 0.00009991, 0.99910081, 0.00009991, 0.00009991, 0.00009991;
  (x_45, x135_150) 0.99910081, 0.00009991, 0.00009991, 0.00009991, 0.00009991, 0.00009991, 0.00009991, 0.00009991, 0.00009991, 0.00009991;
  (x45_60, x135_150) 0.00009991, 0.99910081, 0.00009991, 0.00009991, 0.00009991, 0.00009991, 0.00009991, 0.00009991, 0.00009991, 0.00009991;
  (x60_75, x135_150) 0.00009991, 0.00009991, 0.99910081, 0.00009991, 0.00009991, 0.00009991, 0.00009991, 0.00009991, 0.00009991, 0.00009991;
  (x75_90, x135_150) 0.00009991, 0.00009991, 0.00009991, 0.99910081, 0.00009991, 0.00009991, 0.00009991, 0.00009991, 0.00009991, 0.00009991;
  (x90_105, x135_150) 0.00009991, 0.00009991, 0.00009991, 0.00009991, 0.99910081, 0.00009991, 0.00009991, 0.00009991, 0.00009991, 0.00009991;
  (x105_120, x135_150) 0.00009991, 0.00009991, 0.00009991, 0.00009991, 0.00009991, 0.99910081, 0.00009991, 0.00009991, 0.00009991, 0.00009991;
  (x120_135, x135_150) 0.00009991, 0.00009991, 0.00009991, 0.00009991, 0.00009991, 0.00009991, 0.99910081, 0.00009991, 0.00009991, 0.00009991;
  (x135_150, x135_150) 0.00009991, 0.00009991, 0.00009991, 0.00009991, 0.00009991, 0.00009991, 0.00009991, 0.99910081, 0.00009991, 0.00009991;
  (x150_165, x135_150) 0.00009991, 0.00009991, 0.00009991, 0.00009991, 0.00009991, 0.00009991, 0.00009991, 0.99910081, 0.00009991, 0.00009991;
  (x_165, x135_150) 0.00009991, 0.00009991, 0.00009991, 0.00009991, 0.00009991, 0.00009991, 0.00009991, 0.99910081, 0.00009991, 0.00009991;
  (x_45, x150_165) 0.99910081, 0.00009991, 0.00009991, 0.00009991, 0.00009991, 0.00009991, 0.00009991, 0.00009991, 0.00009991, 0.00009991;
  (x45_60, x150_165) 0.00009991, 0.99910081, 0.00009991, 0.00009991, 0.00009991, 0.00009991, 0.00009991, 0.00009991, 0.00009991, 0.00009991;
  (x60_75, x150_165) 0.00009991, 0.00009991, 0.99910081, 0.00009991, 0.00009991, 0.00009991, 0.00009991, 0.00009991, 0.00009991, 0.00009991;
  (x75_90, x150_165) 0.00009991, 0.00009991, 0.00009991, 0.99910081, 0.00009991, 0.00009991, 0.00009991, 0.00009991, 0.00009991, 0.00009991;
  (x90_105, x150_165) 0.00009991, 0.00009991, 0.00009991, 0.00009991, 0.99910081, 0.00009991, 0.00009991, 0.00009991, 0.00009991, 0.00009991;
  (x105_120, x150_165) 0.00009991, 0.00009991, 0.00009991, 0.00009991, 0.00009991, 0.99910081, 0.00009991, 0.00009991, 0.00009991, 0.00009991;
  (x120_135, x150_165) 0.00009991, 0.00009991, 0.00009991, 0.00009991, 0.00009991, 0.00009991, 0.99910081, 0.00009991, 0.00009991, 0.00009991;
  (x135_150, x150_165) 0.00009991, 0.00009991, 0.00009991, 0.00009991, 0.00009991, 0.00009991, 0.00009991, 0.99910081, 0.00009991, 0.00009991;
  (x150_165, x150_165) 0.00009991, 0.00009991, 0.00009991, 0.00009991, 0.00009991, 0.00009991, 0.00009991, 0.00009991, 0.99910081, 0.00009991;
  (x_165, x150_165) 0.00009991, 0.00009991, 0.00009991, 0.00009991, 0.00009991, 0.00009991, 0.00009991, 0.00009991, 0.99910081, 0.00009991;
  (x_45, x_165) 0.99910081, 0.00009991, 0.00009991, 0.00009991, 0.00009991, 0.00009991, 0.00009991, 0.00009991, 0.00009991, 0.00009991;
  (x45_60, x_165) 0.00009991, 0.99910081, 0.00009991, 0.00009991, 0.00009991, 0.00009991, 0.00009991, 0.00009991, 0.00009991, 0.00009991;
  (x60_75, x_165) 0.00009991, 0.00009991, 0.99910081, 0.00009991, 0.00009991, 0.00009991, 0.00009991, 0.00009991, 0.00009991, 0.00009991;
  (x75_90, x_165) 0.00009991, 0.00009991, 0.00009991, 0.99910081, 0.00009991, 0.00009991, 0.00009991, 0.00009991, 0.00009991, 0.00009991;
  (x90_105, x_165) 0.00009991, 0.00009991, 0.00009991, 0.00009991, 0.99910081, 0.00009991, 0.00009991, 0.00009991, 0.00009991, 0.00009991;
  (x105_120, x_165) 0.00009991, 0.00009991, 0.00009991, 0.00009991, 0.00009991, 0.99910081, 0.00009991, 0.00009991, 0.00009991, 0.00009991;
  (x120_135, x_165) 0.00009991, 0.00009991, 0.00009991, 0.00009991, 0.00009991, 0.00009991, 0.99910081, 0.00009991, 0.00009991, 0.00009991;
  (x135_150, x_165) 0.00009991, 0.00009991, 0.00009991, 0.00009991, 0.00009991, 0.00009991, 0.00009991, 0.99910081, 0.00009991, 0.00009991;
  (x150_165, x_165) 0.00009991, 0.00009991, 0.00009991, 0.00009991, 0.00009991, 0.00009991, 0.00009991, 0.00009991, 0.99910081, 0.00009991;
  (x_165, x_165) 0.00009991, 0.00009991, 0.00009991, 0.00009991, 0.00009991, 0.00009991, 0.00009991, 0.00009991, 0.00009991, 0.99910081;
}
probability ( nprot | jordn, ngodn ){
  (x0_15, x_45) 0.99930049, 0.00009993, 0.00009993, 0.00009993, 0.00009993, 0.00009993, 0.00009993, 0.00009993;
  (x15_30, x_45) 0.99930049, 0.00009993, 0.00009993, 0.00009993, 0.00009993, 0.00009993, 0.00009993, 0.00009993;
  (x30_45, x_45) 0.00009993, 0.99930049, 0.00009993, 0.00009993, 0.00009993, 0.00009993, 0.00009993, 0.00009993;
  (x45_60, x_45) 0.00009993, 0.99930049, 0.00009993, 0.00009993, 0.00009993, 0.00009993, 0.00009993, 0.00009993;
  (x60_75, x_45) 0.00009993, 0.00009993, 0.99930049, 0.00009993, 0.00009993, 0.00009993, 0.00009993, 0.00009993;
  (x75_90, x_45) 0.00009993, 0.00009993, 0.00009993, 0.99930049, 0.00009993, 0.00009993, 0.00009993, 0.00009993;
  (x90_105, x_45) 0.00009993, 0.00009993, 0.00009993, 0.00009993, 0.99930049, 0.00009993, 0.00009993, 0.00009993;
  (x105_120, x_45) 0.00009993, 0.00009993, 0.00009993, 0.00009993, 0.99930049, 0.00009993, 0.00009993, 0.00009993;
  (x_120, x_45) 0.00009993, 0.00009993, 0.00009993, 0.00009993, 0.00009993, 0.99930049, 0.00009993, 0.00009993;
  (x0_15, x45_60) 0.99930049, 0.00009993, 0.00009993, 0.00009993, 0.00009993, 0.00009993, 0.00009993, 0.00009993;
  (x15_30, x45_60) 0.99930049, 0.00009993, 0.00009993, 0.00009993, 0.00009993, 0.00009993, 0.00009993, 0.00009993;
  (x30_45, x45_60) 0.00009993, 0.99930049, 0.00009993, 0.00009993, 0.00009993, 0.00009993, 0.00009993, 0.00009993;
  (x45_60, x45_60) 0.00009993, 0.00009993, 0.99930049, 0.00009993, 0.00009993, 0.00009993, 0.00009993, 0.00009993;
  (x60_75, x45_60) 0.00009993, 0.00009993, 0.99930049, 0.00009993, 0.00009993, 0.00009993, 0.00009993, 0.00009993;
  (x75_90, x45_60) 0.00009993, 0.00009993, 0.00009993, 0.99930049, 0.00009993, 0.00009993, 0.00009993, 0.00009993;
  (x90_105, x45_60) 0.00009993, 0.00009993, 0.00009993, 0.00009993, 0.99930049, 0.00009993, 0.00009993, 0.00009993;
  (x105_120, x45_60) 0.00009993, 0.00009993, 0.00009993, 0.00009993, 0.00009993, 0.99930049, 0.00009993, 0.00009993;
  (x_120, x45_60) 0.00009993, 0.00009993, 0.00009993, 0.00009993, 0.00009993, 0.00009993, 0.99930049, 0.00009993;
  (x0_15, x60_75) 0.99930049, 0.00009993, 0.00009993, 0.00009993, 0.00009993, 0.00009993, 0.00009993, 0.00009993;
  (x15_30, x60_75) 0.99930049, 0.00009993, 0.00009993, 0.00009993, 0.00009993, 0.00009993, 0.00009993, 0.00009993;
  (x30_45, x60_75) 0.00009993, 0.99930049, 0.00009993, 0.00009993, 0.00009993, 0.00009993, 0.00009993, 0.00009993;
  (x45_60, x60_75) 0.00009993, 0.00009993, 0.99930049, 0.00009993, 0.00009993, 0.00009993, 0.00009993, 0.00009993;
  (x60_75, x60_75) 0.00009993, 0.00009993, 0.00009993, 0.99930049, 0.00009993, 0.00009993, 0.00009993, 0.00009993;
  (x75_90, x60_75) 0.00009993, 0.00009993, 0.00009993, 0.99930049, 0.00009993, 0.00009993, 0.00009993, 0.00009993;
  (x90_105, x60_75) 0.00009993, 0.00009993, 0.00009993, 0.00009993, 0.99930049, 0.00009993, 0.00009993, 0.00009993;
  (x105_120, x60_75) 0.00009993, 0.00009993, 0.00009993, 0.00009993, 0.00009993, 0.99930049, 0.00009993, 0.00009993;
  (x_120, x60_75) 0.00009993, 0.00009993, 0.00009993, 0.00009993, 0.00009993, 0.00009993, 0.99930049, 0.00009993;
  (x0_15, x75_90) 0.99930049, 0.00009993, 0.00009993, 0.00009993, 0.00009993, 0.00009993, 0.00009993, 0.00009993;
  (x15_30, x75_90) 0.99930049, 0.00009993, 0.00009993, 0.00009993, 0.00009993, 0.00009993, 0.00009993, 0.00009993;
  (x30_45, x75_90) 0.00009993, 0.99930049, 0.00009993, 0.00009993, 0.00009993, 0.00009993, 0.00009993, 0.00009993;
  (x45_60, x75_90) 0.00009993, 0.00009993, 0.99930049, 0.00009993, 0.00009993, 0.00009993, 0.00009993, 0.00009993;
  (x60_75, x75_90) 0.00009993, 0.00009993, 0.00009993, 0.99930049, 0.00009993, 0.00009993, 0.00009993, 0.00009993;
  (x75_90, x75_90) 0.00009993, 0.00009993, 0.00009993, 0.99930049, 0.00009993, 0.00009993, 0.00009993, 0.00009993;
  (x90_105, x75_90) 0.00009993, 0.00009993, 0.00009993, 0.00009993, 0.99930049, 0.00009993, 0.00009993, 0.00009993;
  (x105_120, x75_90) 0.00009993, 0.00009993, 0.00009993, 0.00009993, 0.00009993, 0.99930049, 0.00009993, 0.00009993;
  (x_120, x75_90) 0.00009993, 0.00009993, 0.00009993, 0.00009993, 0.00009993, 0.00009993, 0.99930049, 0.00009993;
  (x0_15, x90_105) 0.99930049, 0.00009993, 0.00009993, 0.00009993, 0.00009993, 0.00009993, 0.00009993, 0.00009993;
  (x15_30, x90_105) 0.00009993, 0.99930049, 0.00009993, 0.00009993, 0.00009993, 0.00009993, 0.00009993, 0.00009993;
  (x30_45, x90_105) 0.00009993, 0.99930049, 0.00009993, 0.00009993, 0.00009993, 0.00009993, 0.00009993, 0.00009993;
  (x45_60, x90_105) 0.00009993, 0.00009993, 0.99930049, 0.00009993, 0.00009993, 0.00009993, 0.00009993, 0.00009993;
  (x60_75, x90_105) 0.00009993, 0.00009993, 0.00009993, 0.99930049, 0.00009993, 0.00009993, 0.00009993, 0.00009993;
  (x75_90, x90_105) 0.00009993, 0.00009993, 0.00009993, 0.00009993, 0.99930049, 0.00009993, 0.00009993, 0.00009993;
  (x90_105, x90_105) 0.00009993, 0.00009993, 0.00009993, 0.00009993, 0.99930049, 0.00009993, 0.00009993, 0.00009993;
  (x105_120, x90_105) 0.00009993, 0.00009993, 0.00009993, 0.00009993, 0.00009993, 0.99930049, 0.00009993, 0.00009993;
  (x_120, x90_105) 0.00009993, 0.00009993, 0.00009993, 0.00009993, 0.00009993, 0.00009993, 0.99930049, 0.00009993;
  (x0_15, x105_120) 0.99930049, 0.00009993, 0.00009993, 0.00009993, 0.00009993, 0.00009993, 0.00009993, 0.00009993;
  (x15_30, x105_120) 0.00009993, 0.99930049, 0.00009993, 0.00009993, 0.00009993, 0.00009993, 0.00009993, 0.00009993;
  (x30_45, x105_120) 0.00009994, 0.49970018, 0.49970018, 0.00009994, 0.00009994, 0.00009994, 0.00009994, 0.00009994;
  (x45_60, x105_120) 0.00009993, 0.00009993, 0.99930049, 0.00009993, 0.00009993, 0.00009993, 0.00009993, 0.00009993;
  (x60_75, x105_120) 0.00009993, 0.00009993, 0.00009993, 0.99930049, 0.00009993, 0.00009993, 0.00009993, 0.00009993;
  (x75_90, x105_120) 0.00009993, 0.00009993, 0.00009993, 0.00009993, 0.99930049, 0.00009993, 0.00009993, 0.00009993;
  (x90_105, x105_120) 0.00009994, 0.00009994, 0.00009994, 0.00009994, 0.49970018, 0.49970018, 0.00009994, 0.00009994;
  (x105_120, x105_120) 0.00009993, 0.00009993, 0.00009993, 0.00009993, 0.00009993, 0.99930049, 0.00009993, 0.00009993;
  (x_120, x105_120) 0.00009993, 0.00009993, 0.00009993, 0.00009993, 0.00009993, 0.00009993, 0.99930049, 0.00009993;
  (x0_15, x120_135) 0.99930049, 0.00009993, 0.00009993, 0.00009993, 0.00009993, 0.00009993, 0.00009993, 0.00009993;
  (x15_30, x120_135) 0.00009993, 0.99930049, 0.00009993, 0.00009993, 0.00009993, 0.00009993, 0.00009993, 0.00009993;
  (x30_45, x120_135) 0.00009993, 0.00009993, 0.99930049, 0.00009993, 0.00009993, 0.00009993, 0.00009993, 0.00009993;
  (x45_60, x120_135) 0.00009993, 0.00009993, 0.99930049, 0.00009993, 0.00009993, 0.00009993, 0.00009993, 0.00009993;
  (x60_75, x120_135) 0.00009993, 0.00009993, 0.00009993, 0.99930049, 0.00009993, 0.00009993, 0.00009993, 0.00009993;
  (x75_90, x120_135) 0.00009993, 0.00009993, 0.00009993, 0.00009993, 0.99930049, 0.00009993, 0.00009993, 0.00009993;
  (x90_105, x120_135) 0.00009993, 0.00009993, 0.00009993, 0.00009993, 0.00009993, 0.99930049, 0.00009993, 0.00009993;
  (x105_120, x120_135) 0.00009993, 0.00009993, 0.00009993, 0.00009993, 0.00009993, 0.99930049, 0.00009993, 0.00009993;
  (x_120, x120_135) 0.00009993, 0.00009993, 0.00009993, 0.00009993, 0.00009993, 0.00009993, 0.99930049, 0.00009993;
  (x0_15, x135_150) 0.99930049, 0.00009993, 0.00009993, 0.00009993, 0.00009993, 0.00009993, 0.00009993, 0.00009993;
  (x15_30, x135_150) 0.00009993, 0.99930049, 0.00009993, 0.00009993, 0.00009993, 0.00009993, 0.00009993, 0.00009993;
  (x30_45, x135_150) 0.00009993, 0.00009993, 0.99930049, 0.00009993, 0.00009993, 0.00009993, 0.00009993, 0.00009993;
  (x45_60, x135_150) 0.00009993, 0.00009993, 0.00009993, 0.99930049, 0.00009993, 0.00009993, 0.00009993, 0.00009993;
  (x60_75, x135_150) 0.00009993, 0.00009993, 0.00009993, 0.99930049, 0.00009993, 0.00009993, 0.00009993, 0.00009993;
  (x75_90, x135_150) 0.00009993, 0.00009993, 0.00009993, 0.00009993, 0.99930049, 0.00009993, 0.00009993, 0.00009993;
  (x90_105, x135_150) 0.00009993, 0.00009993, 0.00009993, 0.00009993, 0.00009993, 0.99930049, 0.00009993, 0.00009993;
  (x105_120, x135_150) 0.00009993, 0.00009993, 0.00009993, 0.00009993, 0.00009993, 0.00009993, 0.99930049, 0.00009993;
  (x_120, x135_150) 0.00009993, 0.00009993, 0.00009993, 0.00009993, 0.00009993, 0.00009993, 0.99930049, 0.00009993;
  (x0_15, x150_165) 0.99930049, 0.00009993, 0.00009993, 0.00009993, 0.00009993, 0.00009993, 0.00009993, 0.00009993;
  (x15_30, x150_165) 0.00009993, 0.99930049, 0.00009993, 0.00009993, 0.00009993, 0.00009993, 0.00009993, 0.00009993;
  (x30_45, x150_165) 0.00009993, 0.00009993, 0.99930049, 0.00009993, 0.00009993, 0.00009993, 0.00009993, 0.00009993;
  (x45_60, x150_165) 0.00009993, 0.00009993, 0.00009993, 0.99930049, 0.00009993, 0.00009993, 0.00009993, 0.00009993;
  (x60_75, x150_165) 0.00009993, 0.00009993, 0.00009993, 0.99930049, 0.00009993, 0.00009993, 0.00009993, 0.00009993;
  (x75_90, x150_165) 0.00009993, 0.00009993, 0.00009993, 0.00009993, 0.99930049, 0.00009993, 0.00009993, 0.00009993;
  (x90_105, x150_165) 0.00009993, 0.00009993, 0.00009993, 0.00009993, 0.00009993, 0.99930049, 0.00009993, 0.00009993;
  (x105_120, x150_165) 0.00009993, 0.00009993, 0.00009993, 0.00009993, 0.00009993, 0.00009993, 0.99930049, 0.00009993;
  (x_120, x150_165) 0.00009993, 0.00009993, 0.00009993, 0.00009993, 0.00009993, 0.00009993, 0.00009993, 0.99930049;
  (x0_15, x_165) 0.00009993, 0.99930049, 0.00009993, 0.00009993, 0.00009993, 0.00009993, 0.00009993, 0.00009993;
  (x15_30, x_165) 0.00009993, 0.99930049, 0.00009993, 0.00009993, 0.00009993, 0.00009993, 0.00009993, 0.00009993;
  (x30_45, x_165) 0.00009993, 0.00009993, 0.99930049, 0.00009993, 0.00009993, 0.00009993, 0.00009993, 0.00009993;
  (x45_60, x_165) 0.00009993, 0.00009993, 0.00009993, 0.99930049, 0.00009993, 0.00009993, 0.00009993, 0.00009993;
  (x60_75, x_165) 0.00009993, 0.00009993, 0.00009993, 0.00009993, 0.99930049, 0.00009993, 0.00009993, 0.00009993;
  (x75_90, x_165) 0.00009993, 0.00009993, 0.00009993, 0.00009993, 0.99930049, 0.00009993, 0.00009993, 0.00009993;
  (x90_105, x_165) 0.00009993, 0.00009993, 0.00009993, 0.00009993, 0.00009993, 0.99930049, 0.00009993, 0.00009993;
  (x105_120, x_165) 0.00009993, 0.00009993, 0.00009993, 0.00009993, 0.00009993, 0.00009993, 0.99930049, 0.00009993;
  (x_120, x_165) 0.00009993, 0.00009993, 0.00009993, 0.00009993, 0.00009993, 0.00009993, 0.00009993, 0.99930049;
}
probability ( ngtilg | ngodn ){
(x_45) 0.80621627, 0.17799320, 0.01489107, 0.00029982, 0.00009994, 0.00009994, 0.00009994, 0.00009994, 0.00009994, 0.00009994;
(x45_60) 0.33240028, 0.33479956, 0.23542937, 0.08177547, 0.01399580, 0.00119964, 0.00009997, 0.00009997, 0.00009997, 0.00009997;
(x60_75) 0.1562, 0.2119, 0.2637, 0.2119, 0.1101, 0.0369, 0.0080, 0.0011, 0.0001, 0.0001;
(x75_90) 0.08419158, 0.12008799, 0.18718128, 0.21707829, 0.18718128, 0.12008799, 0.05729427, 0.02029797, 0.00539946, 0.00119988;
(x90_105) 0.05139486, 0.07049295, 0.12028797, 0.16568343, 0.18428157, 0.16568343, 0.12028797, 0.07049295, 0.03339666, 0.01799820;
(x105_120) 0.0345, 0.0441, 0.0776, 0.1160, 0.1477, 0.1601, 0.1477, 0.1160, 0.0776, 0.0787;
(x120_135) 0.02499750, 0.02939706, 0.05169483, 0.08029197, 0.10998900, 0.13288671, 0.14148585, 0.13288671, 0.10998900, 0.18638136;
(x135_150) 0.01909809, 0.02059794, 0.03589641, 0.05649435, 0.08049195, 0.10358964, 0.12048795, 0.12668733, 0.12048795, 0.31616838;
(x150_165) 0.01520152, 0.01510151, 0.02590259, 0.04080408, 0.05920592, 0.07910791, 0.09720972, 0.11011101, 0.11471147, 0.44264426;
(x_165) 0.0129, 0.0120, 0.0202, 0.0317, 0.0464, 0.0631, 0.0800, 0.0944, 0.1038, 0.5355;
}
probability ( ntilg | ngtilg, jordn ){
  (x_45, x0_15) 0.99910081, 0.00009991, 0.00009991, 0.00009991, 0.00009991, 0.00009991, 0.00009991, 0.00009991, 0.00009991, 0.00009991;
  (x45_60, x0_15) 0.99910081, 0.00009991, 0.00009991, 0.00009991, 0.00009991, 0.00009991, 0.00009991, 0.00009991, 0.00009991, 0.00009991;
  (x60_75, x0_15) 0.49960032, 0.49960032, 0.00009992, 0.00009992, 0.00009992, 0.00009992, 0.00009992, 0.00009992, 0.00009992, 0.00009992;
  (x75_90, x0_15) 0.00009992, 0.49960032, 0.49960032, 0.00009992, 0.00009992, 0.00009992, 0.00009992, 0.00009992, 0.00009992, 0.00009992;
  (x90_105, x0_15) 0.00009992, 0.00009992, 0.49960032, 0.49960032, 0.00009992, 0.00009992, 0.00009992, 0.00009992, 0.00009992, 0.00009992;
  (x105_120, x0_15) 0.00009992, 0.00009992, 0.00009992, 0.49960032, 0.49960032, 0.00009992, 0.00009992, 0.00009992, 0.00009992, 0.00009992;
  (x120_135, x0_15) 0.00009992, 0.00009992, 0.00009992, 0.00009992, 0.49960032, 0.49960032, 0.00009992, 0.00009992, 0.00009992, 0.00009992;
  (x135_150, x0_15) 0.00009992, 0.00009992, 0.00009992, 0.00009992, 0.00009992, 0.49960032, 0.49960032, 0.00009992, 0.00009992, 0.00009992;
  (x150_165, x0_15) 0.00009992, 0.00009992, 0.00009992, 0.00009992, 0.00009992, 0.00009992, 0.49960032, 0.49960032, 0.00009992, 0.00009992;
  (x_165, x0_15) 0.00009991, 0.00009991, 0.00009991, 0.00009991, 0.00009991, 0.00009991, 0.00009991, 0.99910081, 0.00009991, 0.00009991;
  (x_45, x15_30) 0.99910081, 0.00009991, 0.00009991, 0.00009991, 0.00009991, 0.00009991, 0.00009991, 0.00009991, 0.00009991, 0.00009991;
  (x45_60, x15_30) 0.49960032, 0.49960032, 0.00009992, 0.00009992, 0.00009992, 0.00009992, 0.00009992, 0.00009992, 0.00009992, 0.00009992;
  (x60_75, x15_30) 0.00009992, 0.49960032, 0.49960032, 0.00009992, 0.00009992, 0.00009992, 0.00009992, 0.00009992, 0.00009992, 0.00009992;
  (x75_90, x15_30) 0.00009992, 0.00009992, 0.49960032, 0.49960032, 0.00009992, 0.00009992, 0.00009992, 0.00009992, 0.00009992, 0.00009992;
  (x90_105, x15_30) 0.00009992, 0.00009992, 0.00009992, 0.49960032, 0.49960032, 0.00009992, 0.00009992, 0.00009992, 0.00009992, 0.00009992;
  (x105_120, x15_30) 0.00009992, 0.00009992, 0.00009992, 0.00009992, 0.49960032, 0.49960032, 0.00009992, 0.00009992, 0.00009992, 0.00009992;
  (x120_135, x15_30) 0.00009992, 0.00009992, 0.00009992, 0.00009992, 0.00009992, 0.49960032, 0.49960032, 0.00009992, 0.00009992, 0.00009992;
  (x135_150, x15_30) 0.00009992, 0.00009992, 0.00009992, 0.00009992, 0.00009992, 0.00009992, 0.49960032, 0.49960032, 0.00009992, 0.00009992;
  (x150_165, x15_30) 0.00009992, 0.00009992, 0.00009992, 0.00009992, 0.00009992, 0.00009992, 0.00009992, 0.49960032, 0.49960032, 0.00009992;
  (x_165, x15_30) 0.00009991, 0.00009991, 0.00009991, 0.00009991, 0.00009991, 0.00009991, 0.00009991, 0.00009991, 0.99910081, 0.00009991;
  (x_45, x30_45) 0.99910081, 0.00009991, 0.00009991, 0.00009991, 0.00009991, 0.00009991, 0.00009991, 0.00009991, 0.00009991, 0.00009991;
  (x45_60, x30_45) 0.00009992, 0.49960032, 0.49960032, 0.00009992, 0.00009992, 0.00009992, 0.00009992, 0.00009992, 0.00009992, 0.00009992;
  (x60_75, x30_45) 0.00009992, 0.00009992, 0.49960032, 0.49960032, 0.00009992, 0.00009992, 0.00009992, 0.00009992, 0.00009992, 0.00009992;
  (x75_90, x30_45) 0.00009992, 0.00009992, 0.00009992, 0.49960032, 0.49960032, 0.00009992, 0.00009992, 0.00009992, 0.00009992, 0.00009992;
  (x90_105, x30_45) 0.00009992, 0.00009992, 0.00009992, 0.00009992, 0.49960032, 0.49960032, 0.00009992, 0.00009992, 0.00009992, 0.00009992;
  (x105_120, x30_45) 0.00009992, 0.00009992, 0.00009992, 0.00009992, 0.00009992, 0.49960032, 0.49960032, 0.00009992, 0.00009992, 0.00009992;
  (x120_135, x30_45) 0.00009992, 0.00009992, 0.00009992, 0.00009992, 0.00009992, 0.00009992, 0.49960032, 0.49960032, 0.00009992, 0.00009992;
  (x135_150, x30_45) 0.00009992, 0.00009992, 0.00009992, 0.00009992, 0.00009992, 0.00009992, 0.00009992, 0.49960032, 0.49960032, 0.00009992;
  (x150_165, x30_45) 0.00009992, 0.00009992, 0.00009992, 0.00009992, 0.00009992, 0.00009992, 0.00009992, 0.00009992, 0.49960032, 0.49960032;
  (x_165, x30_45) 0.00009991, 0.00009991, 0.00009991, 0.00009991, 0.00009991, 0.00009991, 0.00009991, 0.00009991, 0.00009991, 0.99910081;
  (x_45, x45_60) 0.00009991, 0.99910081, 0.00009991, 0.00009991, 0.00009991, 0.00009991, 0.00009991, 0.00009991, 0.00009991, 0.00009991;
  (x45_60, x45_60) 0.00009992, 0.00009992, 0.49960032, 0.49960032, 0.00009992, 0.00009992, 0.00009992, 0.00009992, 0.00009992, 0.00009992;
  (x60_75, x45_60) 0.00009992, 0.00009992, 0.00009992, 0.49960032, 0.49960032, 0.00009992, 0.00009992, 0.00009992, 0.00009992, 0.00009992;
  (x75_90, x45_60) 0.00009992, 0.00009992, 0.00009992, 0.00009992, 0.49960032, 0.49960032, 0.00009992, 0.00009992, 0.00009992, 0.00009992;
  (x90_105, x45_60) 0.00009992, 0.00009992, 0.00009992, 0.00009992, 0.00009992, 0.49960032, 0.49960032, 0.00009992, 0.00009992, 0.00009992;
  (x105_120, x45_60) 0.00009992, 0.00009992, 0.00009992, 0.00009992, 0.00009992, 0.00009992, 0.49960032, 0.49960032, 0.00009992, 0.00009992;
  (x120_135, x45_60) 0.00009992, 0.00009992, 0.00009992, 0.00009992, 0.00009992, 0.00009992, 0.00009992, 0.49960032, 0.49960032, 0.00009992;
  (x135_150, x45_60) 0.00009992, 0.00009992, 0.00009992, 0.00009992, 0.00009992, 0.00009992, 0.00009992, 0.00009992, 0.49960032, 0.49960032;
  (x150_165, x45_60) 0.00009991, 0.00009991, 0.00009991, 0.00009991, 0.00009991, 0.00009991, 0.00009991, 0.00009991, 0.00009991, 0.99910081;
  (x_165, x45_60) 0.00009991, 0.00009991, 0.00009991, 0.00009991, 0.00009991, 0.00009991, 0.00009991, 0.00009991, 0.00009991, 0.99910081;
  (x_45, x60_75) 0.00009991, 0.00009991, 0.99910081, 0.00009991, 0.00009991, 0.00009991, 0.00009991, 0.00009991, 0.00009991, 0.00009991;
  (x45_60, x60_75) 0.00009992, 0.00009992, 0.00009992, 0.49960032, 0.49960032, 0.00009992, 0.00009992, 0.00009992, 0.00009992, 0.00009992;
  (x60_75, x60_75) 0.00009992, 0.00009992, 0.00009992, 0.00009992, 0.49960032, 0.49960032, 0.00009992, 0.00009992, 0.00009992, 0.00009992;
  (x75_90, x60_75) 0.00009992, 0.00009992, 0.00009992, 0.00009992, 0.00009992, 0.49960032, 0.49960032, 0.00009992, 0.00009992, 0.00009992;
  (x90_105, x60_75) 0.00009992, 0.00009992, 0.00009992, 0.00009992, 0.00009992, 0.00009992, 0.49960032, 0.49960032, 0.00009992, 0.00009992;
  (x105_120, x60_75) 0.00009992, 0.00009992, 0.00009992, 0.00009992, 0.00009992, 0.00009992, 0.00009992, 0.49960032, 0.49960032, 0.00009992;
  (x120_135, x60_75) 0.00009992, 0.00009992, 0.00009992, 0.00009992, 0.00009992, 0.00009992, 0.00009992, 0.00009992, 0.49960032, 0.49960032;
  (x135_150, x60_75) 0.00009991, 0.00009991, 0.00009991, 0.00009991, 0.00009991, 0.00009991, 0.00009991, 0.00009991, 0.00009991, 0.99910081;
  (x150_165, x60_75) 0.00009991, 0.00009991, 0.00009991, 0.00009991, 0.00009991, 0.00009991, 0.00009991, 0.00009991, 0.00009991, 0.99910081;
  (x_165, x60_75) 0.00009991, 0.00009991, 0.00009991, 0.00009991, 0.00009991, 0.00009991, 0.00009991, 0.00009991, 0.00009991, 0.99910081;
  (x_45, x75_90) 0.00009991, 0.00009991, 0.00009991, 0.99910081, 0.00009991, 0.00009991, 0.00009991, 0.00009991, 0.00009991, 0.00009991;
  (x45_60, x75_90) 0.00009992, 0.00009992, 0.00009992, 0.00009992, 0.49960032, 0.49960032, 0.00009992, 0.00009992, 0.00009992, 0.00009992;
  (x60_75, x75_90) 0.00009992, 0.00009992, 0.00009992, 0.00009992, 0.00009992, 0.49960032, 0.49960032, 0.00009992, 0.00009992, 0.00009992;
  (x75_90, x75_90) 0.00009992, 0.00009992, 0.00009992, 0.00009992, 0.00009992, 0.00009992, 0.49960032, 0.49960032, 0.00009992, 0.00009992;
  (x90_105, x75_90) 0.00009992, 0.00009992, 0.00009992, 0.00009992, 0.00009992, 0.00009992, 0.00009992, 0.49960032, 0.49960032, 0.00009992;
  (x105_120, x75_90) 0.00009992, 0.00009992, 0.00009992, 0.00009992, 0.00009992, 0.00009992, 0.00009992, 0.00009992, 0.49960032, 0.49960032;
  (x120_135, x75_90) 0.00009991, 0.00009991, 0.00009991, 0.00009991, 0.00009991, 0.00009991, 0.00009991, 0.00009991, 0.00009991, 0.99910081;
  (x135_150, x75_90) 0.00009991, 0.00009991, 0.00009991, 0.00009991, 0.00009991, 0.00009991, 0.00009991, 0.00009991, 0.00009991, 0.99910081;
  (x150_165, x75_90) 0.00009991, 0.00009991, 0.00009991, 0.00009991, 0.00009991, 0.00009991, 0.00009991, 0.00009991, 0.00009991, 0.99910081;
  (x_165, x75_90) 0.00009991, 0.00009991, 0.00009991, 0.00009991, 0.00009991, 0.00009991, 0.00009991, 0.00009991, 0.00009991, 0.99910081;
  (x_45, x90_105) 0.00009991, 0.00009991, 0.00009991, 0.00009991, 0.99910081, 0.00009991, 0.00009991, 0.00009991, 0.00009991, 0.00009991;
  (x45_60, x90_105) 0.00009992, 0.00009992, 0.00009992, 0.00009992, 0.00009992, 0.49960032, 0.49960032, 0.00009992, 0.00009992, 0.00009992;
  (x60_75, x90_105) 0.00009992, 0.00009992, 0.00009992, 0.00009992, 0.00009992, 0.00009992, 0.49960032, 0.49960032, 0.00009992, 0.00009992;
  (x75_90, x90_105) 0.00009992, 0.00009992, 0.00009992, 0.00009992, 0.00009992, 0.00009992, 0.00009992, 0.49960032, 0.49960032, 0.00009992;
  (x90_105, x90_105) 0.00009992, 0.00009992, 0.00009992, 0.00009992, 0.00009992, 0.00009992, 0.00009992, 0.00009992, 0.49960032, 0.49960032;
  (x105_120, x90_105) 0.00009991, 0.00009991, 0.00009991, 0.00009991, 0.00009991, 0.00009991, 0.00009991, 0.00009991, 0.00009991, 0.99910081;
  (x120_135, x90_105) 0.00009991, 0.00009991, 0.00009991, 0.00009991, 0.00009991, 0.00009991, 0.00009991, 0.00009991, 0.00009991, 0.99910081;
  (x135_150, x90_105) 0.00009991, 0.00009991, 0.00009991, 0.00009991, 0.00009991, 0.00009991, 0.00009991, 0.00009991, 0.00009991, 0.99910081;
  (x150_165, x90_105) 0.00009991, 0.00009991, 0.00009991, 0.00009991, 0.00009991, 0.00009991, 0.00009991, 0.00009991, 0.00009991, 0.99910081;
  (x_165, x90_105) 0.00009991, 0.00009991, 0.00009991, 0.00009991, 0.00009991, 0.00009991, 0.00009991, 0.00009991, 0.00009991, 0.99910081;
  (x_45, x105_120) 0.00009991, 0.00009991, 0.00009991, 0.00009991, 0.00009991, 0.99910081, 0.00009991, 0.00009991, 0.00009991, 0.00009991;
  (x45_60, x105_120) 0.00009992, 0.00009992, 0.00009992, 0.00009992, 0.00009992, 0.00009992, 0.49960032, 0.49960032, 0.00009992, 0.00009992;
  (x60_75, x105_120) 0.00009992, 0.00009992, 0.00009992, 0.00009992, 0.00009992, 0.00009992, 0.00009992, 0.49960032, 0.49960032, 0.00009992;
  (x75_90, x105_120) 0.00009992, 0.00009992, 0.00009992, 0.00009992, 0.00009992, 0.00009992, 0.00009992, 0.00009992, 0.49960032, 0.49960032;
  (x90_105, x105_120) 0.00009991, 0.00009991, 0.00009991, 0.00009991, 0.00009991, 0.00009991, 0.00009991, 0.00009991, 0.00009991, 0.99910081;
  (x105_120, x105_120) 0.00009991, 0.00009991, 0.00009991, 0.00009991, 0.00009991, 0.00009991, 0.00009991, 0.00009991, 0.00009991, 0.99910081;
  (x120_135, x105_120) 0.00009991, 0.00009991, 0.00009991, 0.00009991, 0.00009991, 0.00009991, 0.00009991, 0.00009991, 0.00009991, 0.99910081;
  (x135_150, x105_120) 0.00009991, 0.00009991, 0.00009991, 0.00009991, 0.00009991, 0.00009991, 0.00009991, 0.00009991, 0.00009991, 0.99910081;
  (x150_165, x105_120) 0.00009991, 0.00009991, 0.00009991, 0.00009991, 0.00009991, 0.00009991, 0.00009991, 0.00009991, 0.00009991, 0.99910081;
  (x_165, x105_120) 0.00009991, 0.00009991, 0.00009991, 0.00009991, 0.00009991, 0.00009991, 0.00009991, 0.00009991, 0.00009991, 0.99910081;
  (x_45, x_120) 0.00009992, 0.00009992, 0.00009992, 0.00009992, 0.00009992, 0.00009992, 0.49960032, 0.49960032, 0.00009992, 0.00009992;
  (x45_60, x_120) 0.00009991, 0.00009991, 0.00009991, 0.00009991, 0.00009991, 0.00009991, 0.00009991, 0.00009991, 0.99910081, 0.00009991;
  (x60_75, x_120) 0.00009991, 0.00009991, 0.00009991, 0.00009991, 0.00009991, 0.00009991, 0.00009991, 0.00009991, 0.00009991, 0.99910081;
  (x75_90, x_120) 0.00009991, 0.00009991, 0.00009991, 0.00009991, 0.00009991, 0.00009991, 0.00009991, 0.00009991, 0.00009991, 0.99910081;
  (x90_105, x_120) 0.00009991, 0.00009991, 0.00009991, 0.00009991, 0.00009991, 0.00009991, 0.00009991, 0.00009991, 0.00009991, 0.99910081;
  (x105_120, x_120) 0.00009991, 0.00009991, 0.00009991, 0.00009991, 0.00009991, 0.00009991, 0.00009991, 0.00009991, 0.00009991, 0.99910081;
  (x120_135, x_120) 0.00009991, 0.00009991, 0.00009991, 0.00009991, 0.00009991, 0.00009991, 0.00009991, 0.00009991, 0.00009991, 0.99910081;
  (x135_150, x_120) 0.00009991, 0.00009991, 0.00009991, 0.00009991, 0.00009991, 0.00009991, 0.00009991, 0.00009991, 0.00009991, 0.99910081;
  (x150_165, x_120) 0.00009991, 0.00009991, 0.00009991, 0.00009991, 0.00009991, 0.00009991, 0.00009991, 0.00009991, 0.00009991, 0.99910081;
  (x_165, x_120) 0.00009991, 0.00009991, 0.00009991, 0.00009991, 0.00009991, 0.00009991, 0.00009991, 0.00009991, 0.00009991, 0.99910081;
}
probability ( aks_m2 | ntilg ){
(x_75) 0.62347531, 0.30953809, 0.05948810, 0.00659868, 0.00059988, 0.00009998, 0.00009998, 0.00009998;
(x75_90) 0.37342531, 0.43231354, 0.15886823, 0.03049390, 0.00419916, 0.00049990, 0.00009998, 0.00009998;
(x90_105) 0.17028297, 0.42155784, 0.28887111, 0.09459054, 0.02049795, 0.00399960, 0.00009999, 0.00009999;
(x105_120) 0.07549245, 0.32556744, 0.35566443, 0.17428257, 0.05349465, 0.01489851, 0.00049995, 0.00009999;
(x120_135) 0.03819618, 0.24067593, 0.36176382, 0.23387661, 0.09129087, 0.03249675, 0.00159984, 0.00009999;
(x135_150) 0.02500250, 0.19431943, 0.34903490, 0.26322632, 0.11751175, 0.04800480, 0.00280028, 0.00010001;
(x150_165) 0.0227, 0.1847, 0.3447, 0.2688, 0.1236, 0.0521, 0.0032, 0.0002;
(x165_180) 0.0291, 0.2100, 0.3547, 0.2536, 0.1081, 0.0421, 0.0023, 0.0001;
(x180_195) 0.0504, 0.2739, 0.3639, 0.2113, 0.0751, 0.0243, 0.0010, 0.0001;
(x_195) 0.12318768, 0.38726127, 0.32416758, 0.12618738, 0.03169683, 0.00719928, 0.00019998, 0.00009999;
}
probability ( keraks | ntilg, aks_m2 ){
(x_75, x_350) 0.38082384, 0.57348530, 0.04289142, 0.00249950, 0.00009998, 0.00009998, 0.00009998;
(x75_90, x_350) 0.34273145, 0.60097981, 0.05258948, 0.00339932, 0.00009998, 0.00009998, 0.00009998;
(x90_105, x_350) 0.29147085, 0.63403660, 0.06889311, 0.00519948, 0.00019998, 0.00009999, 0.00009999;
(x105_120, x_350) 0.23655269, 0.66226755, 0.09228154, 0.00829834, 0.00039992, 0.00009998, 0.00009998;
(x120_135, x_350) 0.18154554, 0.67899630, 0.12486254, 0.01359592, 0.00079976, 0.00009997, 0.00009997;
(x135_150, x_350) 0.13018698, 0.67693231, 0.16848315, 0.02269773, 0.00149985, 0.00009999, 0.00009999;
(x150_165, x_350) 0.0860, 0.6487, 0.2235, 0.0383, 0.0032, 0.0002, 0.0001;
(x165_180, x_350) 0.0515, 0.5901, 0.2871, 0.0639, 0.0069, 0.0004, 0.0001;
(x180_195, x_350) 0.0275, 0.5022, 0.3509, 0.1036, 0.0145, 0.0012, 0.0001;
(x_195, x_350) 0.01119888, 0.37396260, 0.40625937, 0.17138286, 0.03319668, 0.00369963, 0.00029997;
(x_75, x350_450) 0.42751450, 0.53719256, 0.03329334, 0.00169966, 0.00009998, 0.00009998, 0.00009998;
(x75_90, x350_450) 0.38802240, 0.56798640, 0.04129174, 0.00239952, 0.00009998, 0.00009998, 0.00009998;
(x90_105, x350_450) 0.33413317, 0.60687863, 0.05498900, 0.00369926, 0.00009998, 0.00009998, 0.00009998;
(x105_120, x350_450) 0.27534493, 0.64317137, 0.07508498, 0.00599880, 0.00019996, 0.00009998, 0.00009998;
(x120_135, x350_450) 0.21507849, 0.67053295, 0.10368963, 0.00999900, 0.00049995, 0.00009999, 0.00009999;
(x135_150, x350_450) 0.15748425, 0.68093191, 0.14328567, 0.01709829, 0.00099990, 0.00009999, 0.00009999;
(x150_165, x350_450) 0.10648935, 0.66613339, 0.19518048, 0.02969703, 0.00229977, 0.00009999, 0.00009999;
(x165_180, x350_450) 0.06559344, 0.62003800, 0.25807419, 0.05099490, 0.00489951, 0.00029997, 0.00009999;
(x180_195, x350_450) 0.03609639, 0.54124588, 0.32556744, 0.08549145, 0.01069893, 0.00079992, 0.00009999;
(x_195, x350_450) 0.0152, 0.4167, 0.3924, 0.1473, 0.0256, 0.0026, 0.0002;
(x_75, x450_550) 0.47845646, 0.49505148, 0.02509247, 0.00109967, 0.00009997, 0.00009997, 0.00009997;
(x75_90, x450_550) 0.43811238, 0.52859428, 0.03139372, 0.00159968, 0.00009998, 0.00009998, 0.00009998;
(x90_105, x450_550) 0.38212358, 0.57248550, 0.04259148, 0.00249950, 0.00009998, 0.00009998, 0.00009998;
(x105_120, x450_550) 0.31983603, 0.61637673, 0.05928814, 0.00409918, 0.00019996, 0.00009998, 0.00009998;
(x120_135, x450_550) 0.25454909, 0.65396921, 0.08388322, 0.00709858, 0.00029994, 0.00009998, 0.00009998;
(x135_150, x450_550) 0.19038096, 0.67743226, 0.11878812, 0.01249875, 0.00069993, 0.00009999, 0.00009999;
(x150_165, x450_550) 0.13208679, 0.67743226, 0.16648335, 0.02229777, 0.00149985, 0.00009999, 0.00009999;
(x165_180, x450_550) 0.08369163, 0.64603540, 0.22707729, 0.03949605, 0.00339966, 0.00019998, 0.00009999;
(x180_195, x450_550) 0.0475, 0.5795, 0.2963, 0.0685, 0.0076, 0.0005, 0.0001;
(x_195, x450_550) 0.0209, 0.4621, 0.3727, 0.1234, 0.0191, 0.0017, 0.0001;
(x_75, x550_650) 0.54103769, 0.44066780, 0.01729481, 0.00069979, 0.00009997, 0.00009997, 0.00009997;
(x75_90, x550_650) 0.50054984, 0.47615715, 0.02209337, 0.00089973, 0.00009997, 0.00009997, 0.00009997;
(x90_105, x550_650) 0.44331134, 0.52439512, 0.03049390, 0.00149970, 0.00009998, 0.00009998, 0.00009998;
(x105_120, x550_650) 0.37792442, 0.57558488, 0.04359128, 0.00259948, 0.00009998, 0.00009998, 0.00009998;
(x120_135, x550_650) 0.30743851, 0.62427515, 0.06328734, 0.00459908, 0.00019996, 0.00009998, 0.00009998;
(x135_150, x550_650) 0.23605279, 0.66246751, 0.09258148, 0.00829834, 0.00039992, 0.00009998, 0.00009998;
(x150_165, x550_650) 0.16866627, 0.68056388, 0.13427315, 0.01539692, 0.00089982, 0.00009998, 0.00009998;
(x165_180, x550_650) 0.11058894, 0.66853315, 0.19028097, 0.02829717, 0.00209979, 0.00009999, 0.00009999;
(x180_195, x550_650) 0.06529347, 0.61943806, 0.25867413, 0.05119488, 0.00499950, 0.00029997, 0.00009999;
(x_195, x550_650) 0.0302, 0.5154, 0.3428, 0.0974, 0.0131, 0.0010, 0.0001;
(x_75, x650_750) 0.61367727, 0.37482503, 0.01089782, 0.00029994, 0.00009998, 0.00009998, 0.00009998;
(x75_90, x650_750) 0.57422773, 0.41087674, 0.01409577, 0.00049985, 0.00009997, 0.00009997, 0.00009997;
(x90_105, x650_750) 0.51719656, 0.46170766, 0.01999600, 0.00079984, 0.00009998, 0.00009998, 0.00009998;
(x105_120, x650_750) 0.45026492, 0.51864441, 0.02939118, 0.00139958, 0.00009997, 0.00009997, 0.00009997;
(x120_135, x650_750) 0.37556244, 0.57744226, 0.04409559, 0.00259974, 0.00009999, 0.00009999, 0.00009999;
(x135_150, x650_750) 0.29691093, 0.63071078, 0.06697991, 0.00499850, 0.00019994, 0.00009997, 0.00009997;
(x150_165, x650_750) 0.21955609, 0.66896621, 0.10117976, 0.00959808, 0.00049990, 0.00009998, 0.00009998;
(x165_180, x650_750) 0.14968503, 0.68053195, 0.14988501, 0.01849815, 0.00119988, 0.00009999, 0.00009999;
(x180_195, x650_750) 0.0924, 0.6552, 0.2140, 0.0353, 0.0029, 0.0001, 0.0001;
(x_195, x650_750) 0.04529547, 0.57274273, 0.30176982, 0.07139286, 0.00809919, 0.00059994, 0.00009999;
(x_75, x750_950) 0.73270692, 0.26249500, 0.00439824, 0.00009996, 0.00009996, 0.00009996, 0.00009996;
(x75_90, x750_950) 0.69836033, 0.29544091, 0.00579884, 0.00009998, 0.00009998, 0.00009998, 0.00009998;
(x90_105, x750_950) 0.64624150, 0.34446222, 0.00869652, 0.00029988, 0.00009996, 0.00009996, 0.00009996;
(x105_120, x750_950) 0.58206718, 0.40373850, 0.01339464, 0.00049980, 0.00009996, 0.00009996, 0.00009996;
(x120_135, x750_950) 0.50604819, 0.47135859, 0.02139358, 0.00089973, 0.00009997, 0.00009997, 0.00009997;
(x135_150, x750_950) 0.42035796, 0.54294571, 0.03459654, 0.00179982, 0.00009999, 0.00009999, 0.00009999;
(x150_165, x750_950) 0.32953409, 0.60997801, 0.05638872, 0.00379924, 0.00009998, 0.00009998, 0.00009998;
(x165_180, x750_950) 0.24025195, 0.66066787, 0.09048190, 0.00799840, 0.00039992, 0.00009998, 0.00009998;
(x180_195, x750_950) 0.16018398, 0.68093191, 0.14098590, 0.01669833, 0.00099990, 0.00009999, 0.00009999;
(x_195, x750_950) 0.08688262, 0.64957009, 0.22215557, 0.03789242, 0.00319936, 0.00019996, 0.00009998;
(x_75, x950_1150) 0.87764894, 0.12115154, 0.00079968, 0.00009996, 0.00009996, 0.00009996, 0.00009996;
(x75_90, x950_1150) 0.85585766, 0.14264294, 0.00109956, 0.00009996, 0.00009996, 0.00009996, 0.00009996;
(x90_105, x950_1150) 0.82067173, 0.17712915, 0.00179928, 0.00009996, 0.00009996, 0.00009996, 0.00009996;
(x105_120, x950_1150) 0.77339064, 0.22321072, 0.00299880, 0.00009996, 0.00009996, 0.00009996, 0.00009996;
(x120_135, x950_1150) 0.71165767, 0.28274345, 0.00519896, 0.00009998, 0.00009998, 0.00009998, 0.00009998;
(x135_150, x950_1150) 0.63380986, 0.35609317, 0.00949715, 0.00029991, 0.00009997, 0.00009997, 0.00009997;
(x150_165, x950_1150) 0.54053784, 0.44106768, 0.01739478, 0.00069979, 0.00009997, 0.00009997, 0.00009997;
(x165_180, x950_1150) 0.43556933, 0.53064081, 0.03189043, 0.00159952, 0.00009997, 0.00009997, 0.00009997;
(x180_195, x950_1150) 0.32623475, 0.61217757, 0.05738852, 0.00389922, 0.00009998, 0.00009998, 0.00009998;
(x_195, x950_1150) 0.20693792, 0.67309807, 0.10846746, 0.01069679, 0.00059982, 0.00009997, 0.00009997;
(x_75, x_1150) 0.97710916, 0.02239104, 0.00009996, 0.00009996, 0.00009996, 0.00009996, 0.00009996;
(x75_90, x_1150) 0.97101449, 0.02848576, 0.00009995, 0.00009995, 0.00009995, 0.00009995, 0.00009995;
(x90_105, x_1150) 0.96031587, 0.03918433, 0.00009996, 0.00009996, 0.00009996, 0.00009996, 0.00009996;
(x105_120, x_1150) 0.94382247, 0.05557777, 0.00019992, 0.00009996, 0.00009996, 0.00009996, 0.00009996;
(x120_135, x_1150) 0.91873251, 0.08056777, 0.00029988, 0.00009996, 0.00009996, 0.00009996, 0.00009996;
(x135_150, x_1150) 0.88123563, 0.11766470, 0.00069979, 0.00009997, 0.00009997, 0.00009997, 0.00009997;
(x150_165, x_1150) 0.82666933, 0.17133147, 0.00159936, 0.00009996, 0.00009996, 0.00009996, 0.00009996;
(x165_180, x_1150) 0.75087474, 0.24502649, 0.00369889, 0.00009997, 0.00009997, 0.00009997, 0.00009997;
(x180_195, x_1150) 0.65146971, 0.33973205, 0.00829834, 0.00019996, 0.00009998, 0.00009998, 0.00009998;
(x_195, x_1150) 0.50904729, 0.46875937, 0.02099370, 0.00089973, 0.00009997, 0.00009997, 0.00009997;
}
probability ( aks_vgt | ntilg, aks_m2 ){
(x_75, x_350) 0.0088, 0.0697, 0.1888, 0.2773, 0.2414, 0.1722, 0.0396, 0.0021, 0.0001;
(x75_90, x_350) 0.00069993, 0.01179882, 0.06119388, 0.16328367, 0.24877512, 0.33066693, 0.16208379, 0.02029797, 0.00119988;
(x90_105, x_350) 0.0001, 0.0010, 0.0098, 0.0482, 0.1297, 0.3332, 0.3584, 0.1050, 0.0146;
(x105_120, x_350) 0.00009999, 0.00009999, 0.00129987, 0.01079892, 0.04609539, 0.20547945, 0.42415758, 0.24437556, 0.06759324;
(x120_135, x_350) 0.00009999, 0.00009999, 0.00019998, 0.00249975, 0.01529847, 0.10538946, 0.36206379, 0.34766523, 0.16668333;
(x135_150, x_350) 0.00009998, 0.00009998, 0.00009998, 0.00079984, 0.00609878, 0.05678864, 0.27994401, 0.38232354, 0.27374525;
(x150_165, x_350) 0.00009998, 0.00009998, 0.00009998, 0.00039992, 0.00339932, 0.03799240, 0.22975405, 0.38202360, 0.34613077;
(x165_180, x_350) 0.00009998, 0.00009998, 0.00009998, 0.00029994, 0.00299940, 0.03459308, 0.21875625, 0.38002400, 0.36302739;
(x180_195, x_350) 0.00009997, 0.00009997, 0.00009997, 0.00049985, 0.00419874, 0.04368689, 0.24662601, 0.38378486, 0.32090373;
(x_195, x_350) 0.00009999, 0.00009999, 0.00009999, 0.00149985, 0.01019898, 0.08089191, 0.32716728, 0.36856314, 0.21137886;
(x_75, x350_450) 0.0382, 0.1696, 0.2842, 0.2700, 0.1562, 0.0718, 0.0096, 0.0003, 0.0001;
(x75_90, x350_450) 0.0047, 0.0456, 0.1479, 0.2560, 0.2599, 0.2195, 0.0621, 0.0042, 0.0001;
(x90_105, x350_450) 0.0003, 0.0061, 0.0386, 0.1230, 0.2212, 0.3549, 0.2182, 0.0350, 0.0027;
(x105_120, x350_450) 0.00009999, 0.00069993, 0.00789921, 0.04099590, 0.11688831, 0.32126787, 0.37456254, 0.11948805, 0.01809819;
(x120_135, x350_450) 0.0001, 0.0001, 0.0017, 0.0130, 0.0527, 0.2213, 0.4251, 0.2276, 0.0584;
(x135_150, x350_450) 0.00009998, 0.00009998, 0.00049990, 0.00499900, 0.02589482, 0.14667067, 0.40071986, 0.30643871, 0.11457708;
(x150_165, x350_450) 0.00009998, 0.00009998, 0.00019996, 0.00279944, 0.01639672, 0.11017796, 0.36772645, 0.34313137, 0.15936813;
(x165_180, x350_450) 0.00009997, 0.00009997, 0.00019994, 0.00239928, 0.01479556, 0.10286914, 0.35889233, 0.34999500, 0.17064881;
(x180_195, x350_450) 0.00009998, 0.00009998, 0.00029994, 0.00339932, 0.01919616, 0.12187562, 0.38012398, 0.33173365, 0.14317137;
(x_195, x350_450) 0.00009998, 0.00009998, 0.00099980, 0.00859828, 0.03879224, 0.18656269, 0.42011598, 0.26444711, 0.08028394;
(x_75, x450_550) 0.09839016, 0.27107289, 0.30806919, 0.20607939, 0.08579142, 0.02799720, 0.00239976, 0.00009999, 0.00009999;
(x75_90, x450_550) 0.01709658, 0.10567886, 0.23395321, 0.28594281, 0.20955809, 0.12407518, 0.02269546, 0.00089982, 0.00009998;
(x90_105, x450_550) 0.00149985, 0.02079792, 0.09009099, 0.20287971, 0.26377362, 0.29317068, 0.11578842, 0.01139886, 0.00059994;
(x105_120, x450_550) 0.00010001, 0.00340034, 0.02520252, 0.09280928, 0.19161916, 0.36073607, 0.26822682, 0.05290529, 0.00500050;
(x120_135, x450_550) 0.0001, 0.0006, 0.0070, 0.0375, 0.1103, 0.3143, 0.3824, 0.1276, 0.0202;
(x135_150, x450_550) 0.0001, 0.0002, 0.0024, 0.0171, 0.0642, 0.2454, 0.4224, 0.2021, 0.0461;
(x150_165, x450_550) 0.00009999, 0.00009999, 0.00129987, 0.01039896, 0.04469553, 0.20217978, 0.42365763, 0.24787521, 0.06969303;
(x165_180, x450_550) 0.00009999, 0.00009999, 0.00109989, 0.00919908, 0.04109589, 0.19268073, 0.42175782, 0.25797420, 0.07599240;
(x180_195, x450_550) 0.00009999, 0.00009999, 0.00159984, 0.01229877, 0.05079492, 0.21677832, 0.42505749, 0.23237676, 0.06089391;
(x_195, x450_550) 0.0001, 0.0003, 0.0044, 0.0267, 0.0877, 0.2854, 0.4060, 0.1596, 0.0298;
(x_75, x550_650) 0.20905819, 0.34963007, 0.26804639, 0.12607479, 0.03769246, 0.00879824, 0.00049990, 0.00009998, 0.00009998;
(x75_90, x550_650) 0.05069493, 0.19738026, 0.29717028, 0.25607439, 0.13518648, 0.05649435, 0.00669933, 0.00019998, 0.00009999;
(x90_105, x550_650) 0.00649935, 0.05689431, 0.16838316, 0.26817318, 0.25187481, 0.19528047, 0.04979502, 0.00299970, 0.00009999;
(x105_120, x550_650) 0.0008, 0.0127, 0.0644, 0.1683, 0.2514, 0.3266, 0.1558, 0.0189, 0.0011;
(x120_135, x550_650) 0.00009999, 0.00299970, 0.02279772, 0.08669133, 0.18468153, 0.36006399, 0.27927207, 0.05769423, 0.00569943;
(x135_150, x550_650) 0.00010001, 0.00090009, 0.00940094, 0.04680468, 0.12731273, 0.33113311, 0.36153615, 0.10761076, 0.01520152;
(x150_165, x550_650) 0.00009998, 0.00049990, 0.00539892, 0.03129374, 0.09758048, 0.29904019, 0.39632074, 0.14467107, 0.02509498;
(x165_180, x550_650) 0.00009998, 0.00039992, 0.00479904, 0.02839432, 0.09158168, 0.29084183, 0.40241952, 0.15356929, 0.02789442;
(x180_195, x550_650) 0.00009998, 0.00059988, 0.00659868, 0.03599280, 0.10727854, 0.31083783, 0.38582284, 0.13147371, 0.02129574;
(x_195, x550_650) 0.0001, 0.0018, 0.0155, 0.0666, 0.1586, 0.3521, 0.3186, 0.0777, 0.0090;
(x_75, x650_750) 0.37112577, 0.36402719, 0.18726255, 0.06178764, 0.01329734, 0.00219956, 0.00009998, 0.00009998, 0.00009998;
(x75_90, x650_750) 0.12367526, 0.29724055, 0.30293941, 0.18386323, 0.06978604, 0.02069586, 0.00159968, 0.00009998, 0.00009998;
(x90_105, x650_750) 0.02259548, 0.12517497, 0.25274945, 0.28414317, 0.19256149, 0.10477904, 0.01729654, 0.00059988, 0.00009998;
(x105_120, x650_750) 0.0036, 0.0380, 0.1324, 0.2446, 0.2640, 0.2385, 0.0733, 0.0054, 0.0002;
(x120_135, x650_750) 0.00060012, 0.01130226, 0.05951190, 0.16063213, 0.24744949, 0.33276655, 0.16543309, 0.02100420, 0.00130026;
(x135_150, x650_750) 0.00019998, 0.00419958, 0.02919708, 0.10258974, 0.20207979, 0.36026397, 0.25117488, 0.04619538, 0.00409959;
(x150_165, x650_750) 0.00010001, 0.00220022, 0.01850185, 0.07530753, 0.17041704, 0.35683568, 0.30113011, 0.06810681, 0.00740074;
(x165_180, x650_750) 0.00010001, 0.00190019, 0.01670167, 0.07000700, 0.16321632, 0.35413541, 0.31183118, 0.07380738, 0.00830083;
(x180_195, x650_750) 0.00009999, 0.00279972, 0.02169783, 0.08399160, 0.18128187, 0.35956404, 0.28447155, 0.05999400, 0.00609939;
(x_195, x650_750) 0.0004, 0.0073, 0.0438, 0.1332, 0.2294, 0.3503, 0.2029, 0.0305, 0.0022;
(x_75, x750_950) 0.65250425, 0.25872238, 0.07247826, 0.01399580, 0.00179946, 0.00019994, 0.00009997, 0.00009997, 0.00009997;
(x75_90, x750_950) 0.33156684, 0.36756324, 0.20667933, 0.07379262, 0.01709829, 0.00299970, 0.00009999, 0.00009999, 0.00009999;
(x90_105, x750_950) 0.09987004, 0.27271818, 0.30780766, 0.20473858, 0.08477457, 0.02749175, 0.00239928, 0.00009997, 0.00009997;
(x105_120, x750_950) 0.02449265, 0.13146056, 0.25802259, 0.28291513, 0.18714386, 0.09937019, 0.01589523, 0.00059982, 0.00009997;
(x120_135, x750_950) 0.0063, 0.0558, 0.1665, 0.2672, 0.2528, 0.1974, 0.0508, 0.0031, 0.0001;
(x135_150, x750_950) 0.0021, 0.0264, 0.1051, 0.2197, 0.2662, 0.2733, 0.0981, 0.0087, 0.0004;
(x150_165, x750_950) 0.00109978, 0.01639672, 0.07678464, 0.18596281, 0.25894821, 0.31063787, 0.13467307, 0.01469706, 0.00079984;
(x165_180, x750_950) 0.00090009, 0.01470147, 0.07120712, 0.17831783, 0.25602560, 0.31793179, 0.14361436, 0.01640164, 0.00090009;
(x180_195, x750_950) 0.0014, 0.0193, 0.0857, 0.1976, 0.2626, 0.2989, 0.1215, 0.0124, 0.0006;
(x_195, x750_950) 0.0039, 0.0404, 0.1374, 0.2484, 0.2629, 0.2323, 0.0695, 0.0050, 0.0002;
(x_75, x950_1150) 0.91183527, 0.07736905, 0.00939624, 0.00089964, 0.00009996, 0.00009996, 0.00009996, 0.00009996, 0.00009996;
(x75_90, x950_1150) 0.70048985, 0.23033090, 0.05748276, 0.01009697, 0.00119964, 0.00009997, 0.00009997, 0.00009997, 0.00009997;
(x90_105, x950_1150) 0.37426257, 0.36356364, 0.18578142, 0.06099390, 0.01299870, 0.00209979, 0.00009999, 0.00009999, 0.00009999;
(x105_120, x950_1150) 0.15695291, 0.32320304, 0.29141258, 0.15845246, 0.05428371, 0.01449565, 0.00099970, 0.00009997, 0.00009997;
(x120_135, x950_1150) 0.06259374, 0.21977802, 0.30396960, 0.24277572, 0.11938806, 0.04629537, 0.00499950, 0.00009999, 0.00009999;
(x135_150, x950_1150) 0.02879712, 0.14438556, 0.26817318, 0.27947205, 0.17638236, 0.08899110, 0.01329867, 0.00039996, 0.00009999;
(x150_165, x950_1150) 0.01759824, 0.10798920, 0.23627637, 0.28597140, 0.20757924, 0.12158784, 0.02199780, 0.00089991, 0.00009999;
(x165_180, x950_1150) 0.01579842, 0.10068993, 0.22857714, 0.28587141, 0.21397860, 0.12958704, 0.02439756, 0.00099990, 0.00009999;
(x180_195, x950_1150) 0.0209, 0.1196, 0.2477, 0.2851, 0.1974, 0.1099, 0.0186, 0.0007, 0.0001;
(x_195, x950_1150) 0.04469553, 0.18458154, 0.29177082, 0.26287371, 0.14468553, 0.06319368, 0.00789921, 0.00019998, 0.00009999;
(x_75, x_1150) 0.99410354, 0.00509694, 0.00019988, 0.00009994, 0.00009994, 0.00009994, 0.00009994, 0.00009994, 0.00009994;
(x75_90, x_1150) 0.95762119, 0.03828086, 0.00339830, 0.00019990, 0.00009995, 0.00009995, 0.00009995, 0.00009995, 0.00009995;
(x90_105, x_1150) 0.81077570, 0.15593762, 0.02868852, 0.00379848, 0.00039984, 0.00009996, 0.00009996, 0.00009996, 0.00009996;
(x105_120, x_1150) 0.57726909, 0.29798081, 0.09866054, 0.02209116, 0.00329868, 0.00039984, 0.00009996, 0.00009996, 0.00009996;
(x120_135, x_1150) 0.37032593, 0.36412717, 0.18766247, 0.06208758, 0.01329734, 0.00219956, 0.00009998, 0.00009998, 0.00009998;
(x135_150, x_1150) 0.24295141, 0.35982803, 0.25134973, 0.10877824, 0.03009398, 0.00649870, 0.00029994, 0.00009998, 0.00009998;
(x150_165, x_1150) 0.18336333, 0.33843231, 0.28014397, 0.14107179, 0.04499100, 0.01109778, 0.00069986, 0.00009998, 0.00009998;
(x165_180, x_1150) 0.17156569, 0.33213357, 0.28534293, 0.14857029, 0.04889022, 0.01249750, 0.00079984, 0.00009998, 0.00009998;
(x180_195, x_1150) 0.20235953, 0.34703059, 0.27124575, 0.12987403, 0.03949210, 0.00929814, 0.00049990, 0.00009998, 0.00009998;
(x_195, x_1150) 0.30970709, 0.36768969, 0.21763471, 0.08127562, 0.01959412, 0.00369889, 0.00019994, 0.00009997, 0.00009997;
}
probability ( ksort | keraks, aks_vgt ){
(x_13, x_550) 0.03049695, 0.30226977, 0.63813619, 0.02899710, 0.00009999;
(x13_15, x_550) 0.99590123, 0.00379886, 0.00009997, 0.00009997, 0.00009997;
(x15_17, x_550) 0.99960016, 0.00009996, 0.00009996, 0.00009996, 0.00009996;
(x17_19, x_550) 0.99960016, 0.00009996, 0.00009996, 0.00009996, 0.00009996;
(x19_21, x_550) 0.99960016, 0.00009996, 0.00009996, 0.00009996, 0.00009996;
(x21_23, x_550) 0.99960016, 0.00009996, 0.00009996, 0.00009996, 0.00009996;
(x_23, x_550) 0.99960016, 0.00009996, 0.00009996, 0.00009996, 0.00009996;
(x_13, x550_600) 0.0001, 0.0118, 0.5149, 0.4719, 0.0013;
(x13_15, x550_600) 0.79924015, 0.18926215, 0.01129774, 0.00009998, 0.00009998;
(x15_17, x550_600) 0.99960012, 0.00009997, 0.00009997, 0.00009997, 0.00009997;
(x17_19, x550_600) 0.99960016, 0.00009996, 0.00009996, 0.00009996, 0.00009996;
(x19_21, x550_600) 0.99960016, 0.00009996, 0.00009996, 0.00009996, 0.00009996;
(x21_23, x550_600) 0.99960016, 0.00009996, 0.00009996, 0.00009996, 0.00009996;
(x_23, x550_600) 0.99960016, 0.00009996, 0.00009996, 0.00009996, 0.00009996;
(x_13, x600_650) 0.00009998, 0.00009998, 0.05528894, 0.85702860, 0.08748250;
(x13_15, x600_650) 0.20537946, 0.52644736, 0.26647335, 0.00159984, 0.00009999;
(x15_17, x600_650) 0.98610278, 0.01359728, 0.00009998, 0.00009998, 0.00009998;
(x17_19, x600_650) 0.99960016, 0.00009996, 0.00009996, 0.00009996, 0.00009996;
(x19_21, x600_650) 0.99960016, 0.00009996, 0.00009996, 0.00009996, 0.00009996;
(x21_23, x600_650) 0.99960016, 0.00009996, 0.00009996, 0.00009996, 0.00009996;
(x_23, x600_650) 0.99960016, 0.00009996, 0.00009996, 0.00009996, 0.00009996;
(x_13, x650_700) 0.00009997, 0.00009997, 0.00059982, 0.37938618, 0.61981406;
(x13_15, x650_700) 0.00649935, 0.14188581, 0.75202480, 0.09949005, 0.00009999;
(x15_17, x650_700) 0.70625875, 0.26994601, 0.02359528, 0.00009998, 0.00009998;
(x17_19, x650_700) 0.99950015, 0.00019994, 0.00009997, 0.00009997, 0.00009997;
(x19_21, x650_700) 0.99960016, 0.00009996, 0.00009996, 0.00009996, 0.00009996;
(x21_23, x650_700) 0.99960016, 0.00009996, 0.00009996, 0.00009996, 0.00009996;
(x_23, x650_700) 0.99960016, 0.00009996, 0.00009996, 0.00009996, 0.00009996;
(x_13, x700_750) 0.00009997, 0.00009997, 0.00009997, 0.02459262, 0.97510747;
(x13_15, x700_750) 0.00009999, 0.00339966, 0.34946505, 0.64203580, 0.00499950;
(x15_17, x700_750) 0.13148685, 0.49475052, 0.36966303, 0.00399960, 0.00009999;
(x17_19, x700_750) 0.97160568, 0.02779444, 0.00039992, 0.00009998, 0.00009998;
(x19_21, x700_750) 0.99960016, 0.00009996, 0.00009996, 0.00009996, 0.00009996;
(x21_23, x700_750) 0.99960016, 0.00009996, 0.00009996, 0.00009996, 0.00009996;
(x_23, x700_750) 0.99960016, 0.00009996, 0.00009996, 0.00009996, 0.00009996;
(x_13, x750_850) 0.00009996, 0.00009996, 0.00009996, 0.00009996, 0.99960016;
(x13_15, x750_850) 0.00009999, 0.00009999, 0.00199980, 0.53004700, 0.46775322;
(x15_17, x750_850) 0.0002, 0.0148, 0.5473, 0.4368, 0.0009;
(x17_19, x750_850) 0.27937206, 0.52474753, 0.19508049, 0.00069993, 0.00009999;
(x19_21, x750_850) 0.99250150, 0.00719856, 0.00009998, 0.00009998, 0.00009998;
(x21_23, x750_850) 0.99960016, 0.00009996, 0.00009996, 0.00009996, 0.00009996;
(x_23, x750_850) 0.99960016, 0.00009996, 0.00009996, 0.00009996, 0.00009996;
(x_13, x850_950) 0.00009996, 0.00009996, 0.00009996, 0.00009996, 0.99960016;
(x13_15, x850_950) 0.00009997, 0.00009997, 0.00009997, 0.00059982, 0.99910027;
(x15_17, x850_950) 0.00009998, 0.00009998, 0.00079984, 0.41371726, 0.58528294;
(x17_19, x850_950) 0.00009999, 0.00679932, 0.43755624, 0.55304470, 0.00249975;
(x19_21, x850_950) 0.1891, 0.5231, 0.2858, 0.0019, 0.0001;
(x21_23, x850_950) 0.98380486, 0.01579526, 0.00019994, 0.00009997, 0.00009997;
(x_23, x850_950) 0.99960016, 0.00009996, 0.00009996, 0.00009996, 0.00009996;
(x_13, x950_1050) 0.00009996, 0.00009996, 0.00009996, 0.00009996, 0.99960016;
(x13_15, x950_1050) 0.00009996, 0.00009996, 0.00009996, 0.00009996, 0.99960016;
(x15_17, x950_1050) 0.00009997, 0.00009997, 0.00009997, 0.00019994, 0.99950015;
(x17_19, x950_1050) 0.00009998, 0.00009998, 0.00029994, 0.30383923, 0.69566087;
(x19_21, x950_1050) 0.0001, 0.0028, 0.3284, 0.6627, 0.0060;
(x21_23, x950_1050) 0.11938806, 0.48435156, 0.39136086, 0.00479952, 0.00009999;
(x_23, x950_1050) 0.99930021, 0.00039988, 0.00009997, 0.00009997, 0.00009997;
(x_13, x_1050) 0.00009996, 0.00009996, 0.00009996, 0.00009996, 0.99960016;
(x13_15, x_1050) 0.00009996, 0.00009996, 0.00009996, 0.00009996, 0.99960016;
(x15_17, x_1050) 0.00009996, 0.00009996, 0.00009996, 0.00009996, 0.99960016;
(x17_19, x_1050) 0.00009996, 0.00009996, 0.00009996, 0.00009996, 0.99960016;
(x19_21, x_1050) 0.00009997, 0.00009997, 0.00009997, 0.00669799, 0.99300210;
(x21_23, x_1050) 0.00009998, 0.00009998, 0.00829834, 0.70255949, 0.28894221;
(x_23, x_1050) 0.0523, 0.3756, 0.5561, 0.0159, 0.0001;
}
probability ( protein | nprot, ksort ){
(x_40, x_85) 0.49745025, 0.18328167, 0.14718528, 0.09459054, 0.04869513, 0.01999800, 0.00659934, 0.00219978;
(x40_60, x_85) 0.34963496, 0.18621862, 0.17851785, 0.13701370, 0.08420842, 0.04140414, 0.01630163, 0.00670067;
(x60_80, x_85) 0.14051405, 0.13311331, 0.17631763, 0.18701870, 0.15881588, 0.10791079, 0.05870587, 0.03760376;
(x80_100, x_85) 0.00040004, 0.00180018, 0.00670067, 0.02020202, 0.04900490, 0.09510951, 0.14771477, 0.67906791;
(x100_120, x_85) 0.00009996, 0.00009996, 0.00009996, 0.00009996, 0.00009996, 0.00059976, 0.00269892, 0.99620152;
(x120_140, x_85) 0.00009993, 0.00009993, 0.00009993, 0.00009993, 0.00009993, 0.00009993, 0.00009993, 0.99930049;
(x140_160, x_85) 0.00009993, 0.00009993, 0.00009993, 0.00009993, 0.00009993, 0.00009993, 0.00009993, 0.99930049;
(x_160, x_85) 0.00009993, 0.00009993, 0.00009993, 0.00009993, 0.00009993, 0.00009993, 0.00009993, 0.99930049;
(x_40, x85_90) 0.67613239, 0.14848515, 0.09599040, 0.04969503, 0.02059794, 0.00679932, 0.00179982, 0.00049995;
(x40_60, x85_90) 0.5307, 0.1792, 0.1384, 0.0856, 0.0423, 0.0168, 0.0053, 0.0017;
(x60_80, x85_90) 0.26927307, 0.17548245, 0.18728127, 0.15998400, 0.10938906, 0.05989401, 0.02619738, 0.01249875;
(x80_100, x85_90) 0.0021, 0.0065, 0.0197, 0.0480, 0.0937, 0.1463, 0.1830, 0.5007;
(x100_120, x85_90) 0.00009997, 0.00009997, 0.00009997, 0.00009997, 0.00059982, 0.00259922, 0.00909727, 0.98730381;
(x120_140, x85_90) 0.00009993, 0.00009993, 0.00009993, 0.00009993, 0.00009993, 0.00009993, 0.00009993, 0.99930049;
(x140_160, x85_90) 0.00009993, 0.00009993, 0.00009993, 0.00009993, 0.00009993, 0.00009993, 0.00009993, 0.99930049;
(x_160, x85_90) 0.00009993, 0.00009993, 0.00009993, 0.00009993, 0.00009993, 0.00009993, 0.00009993, 0.99930049;
(x_40, x90_95) 0.7781, 0.1148, 0.0642, 0.0288, 0.0103, 0.0030, 0.0007, 0.0001;
(x40_60, x90_95) 0.6502, 0.1555, 0.1039, 0.0556, 0.0238, 0.0082, 0.0022, 0.0006;
(x60_80, x90_95) 0.3797, 0.1878, 0.1734, 0.1282, 0.0759, 0.0360, 0.0136, 0.0054;
(x80_100, x90_95) 0.0054, 0.0137, 0.0360, 0.0760, 0.1283, 0.1735, 0.1878, 0.3793;
(x100_120, x90_95) 0.00009998, 0.00009998, 0.00009998, 0.00029994, 0.00149970, 0.00599880, 0.01849630, 0.97340532;
(x120_140, x90_95) 0.00009993, 0.00009993, 0.00009993, 0.00009993, 0.00009993, 0.00009993, 0.00009993, 0.99930049;
(x140_160, x90_95) 0.00009993, 0.00009993, 0.00009993, 0.00009993, 0.00009993, 0.00009993, 0.00009993, 0.99930049;
(x_160, x90_95) 0.00009993, 0.00009993, 0.00009993, 0.00009993, 0.00009993, 0.00009993, 0.00009993, 0.99930049;
(x_40, x95_98) 0.8444, 0.0873, 0.0435, 0.0174, 0.0056, 0.0014, 0.0003, 0.0001;
(x40_60, x95_98) 0.73674735, 0.12972595, 0.07721544, 0.03680736, 0.01400280, 0.00430086, 0.00100020, 0.00020004;
(x60_80, x95_98) 0.4765, 0.1853, 0.1524, 0.1004, 0.0530, 0.0223, 0.0075, 0.0026;
(x80_100, x95_98) 0.01060106, 0.02320232, 0.05460546, 0.10251025, 0.15431543, 0.18581858, 0.17921792, 0.28972897;
(x100_120, x95_98) 0.0001, 0.0001, 0.0001, 0.0007, 0.0032, 0.0110, 0.0304, 0.9544;
(x120_140, x95_98) 0.00009993, 0.00009993, 0.00009993, 0.00009993, 0.00009993, 0.00009993, 0.00009993, 0.99930049;
(x140_160, x95_98) 0.00009993, 0.00009993, 0.00009993, 0.00009993, 0.00009993, 0.00009993, 0.00009993, 0.99930049;
(x_160, x95_98) 0.00009993, 0.00009993, 0.00009993, 0.00009993, 0.00009993, 0.00009993, 0.00009993, 0.99930049;
(x_40, x_98) 0.87832434, 0.07138572, 0.03309338, 0.01229754, 0.00369926, 0.00089982, 0.00019996, 0.00009998;
(x40_60, x_98) 0.78457846, 0.11231123, 0.06220622, 0.02760276, 0.00980098, 0.00280028, 0.00060006, 0.00010001;
(x60_80, x_98) 0.5380, 0.1782, 0.1364, 0.0836, 0.0410, 0.0161, 0.0051, 0.0016;
(x80_100, x_98) 0.0158, 0.0314, 0.0686, 0.1200, 0.1679, 0.1882, 0.1688, 0.2393;
(x100_120, x_98) 0.0001, 0.0001, 0.0002, 0.0012, 0.0049, 0.0157, 0.0402, 0.9376;
(x120_140, x_98) 0.00009994, 0.00009994, 0.00009994, 0.00009994, 0.00009994, 0.00009994, 0.00009994, 0.99930042;
(x140_160, x_98) 0.00009993, 0.00009993, 0.00009993, 0.00009993, 0.00009993, 0.00009993, 0.00009993, 0.99930049;
(x_160, x_98) 0.00009993, 0.00009993, 0.00009993, 0.00009993, 0.00009993, 0.00009993, 0.00009993, 0.99930049;
}
probability ( udb | aks_m2, aks_vgt ){
  (x_350, x_550) 0.99920064, 0.00009992, 0.00009992, 0.00009992, 0.00009992, 0.00009992, 0.00009992, 0.00009992, 0.00009992;
  (x350_450, x_550) 0.99920064, 0.00009992, 0.00009992, 0.00009992, 0.00009992, 0.00009992, 0.00009992, 0.00009992, 0.00009992;
  (x450_550, x_550) 0.99920064, 0.00009992, 0.00009992, 0.00009992, 0.00009992, 0.00009992, 0.00009992, 0.00009992, 0.00009992;
  (x550_650, x_550) 0.00009992, 0.99920064, 0.00009992, 0.00009992, 0.00009992, 0.00009992, 0.00009992, 0.00009992, 0.00009992;
  (x650_750, x_550) 0.00009992, 0.99920064, 0.00009992, 0.00009992, 0.00009992, 0.00009992, 0.00009992, 0.00009992, 0.00009992;
  (x750_950, x_550) 0.00009992, 0.00009992, 0.99920064, 0.00009992, 0.00009992, 0.00009992, 0.00009992, 0.00009992, 0.00009992;
  (x950_1150, x_550) 0.00009992, 0.00009992, 0.00009992, 0.99920064, 0.00009992, 0.00009992, 0.00009992, 0.00009992, 0.00009992;
  (x_1150, x_550) 0.00009992, 0.00009992, 0.00009992, 0.00009992, 0.00009992, 0.00009992, 0.99920064, 0.00009992, 0.00009992;
  (x_350, x550_600) 0.99920064, 0.00009992, 0.00009992, 0.00009992, 0.00009992, 0.00009992, 0.00009992, 0.00009992, 0.00009992;
  (x350_450, x550_600) 0.99920064, 0.00009992, 0.00009992, 0.00009992, 0.00009992, 0.00009992, 0.00009992, 0.00009992, 0.00009992;
  (x450_550, x550_600) 0.99920064, 0.00009992, 0.00009992, 0.00009992, 0.00009992, 0.00009992, 0.00009992, 0.00009992, 0.00009992;
  (x550_650, x550_600) 0.00009992, 0.99920064, 0.00009992, 0.00009992, 0.00009992, 0.00009992, 0.00009992, 0.00009992, 0.00009992;
  (x650_750, x550_600) 0.00009992, 0.00009992, 0.99920064, 0.00009992, 0.00009992, 0.00009992, 0.00009992, 0.00009992, 0.00009992;
  (x750_950, x550_600) 0.00009992, 0.00009992, 0.99920064, 0.00009992, 0.00009992, 0.00009992, 0.00009992, 0.00009992, 0.00009992;
  (x950_1150, x550_600) 0.00009992, 0.00009992, 0.00009992, 0.00009992, 0.00009992, 0.99920064, 0.00009992, 0.00009992, 0.00009992;
  (x_1150, x550_600) 0.00009992, 0.00009992, 0.00009992, 0.00009992, 0.00009992, 0.00009992, 0.00009992, 0.99920064, 0.00009992;
  (x_350, x600_650) 0.99920064, 0.00009992, 0.00009992, 0.00009992, 0.00009992, 0.00009992, 0.00009992, 0.00009992, 0.00009992;
  (x350_450, x600_650) 0.99920064, 0.00009992, 0.00009992, 0.00009992, 0.00009992, 0.00009992, 0.00009992, 0.00009992, 0.00009992;
  (x450_550, x600_650) 0.00009992, 0.99920064, 0.00009992, 0.00009992, 0.00009992, 0.00009992, 0.00009992, 0.00009992, 0.00009992;
  (x550_650, x600_650) 0.00009992, 0.99920064, 0.00009992, 0.00009992, 0.00009992, 0.00009992, 0.00009992, 0.00009992, 0.00009992;
  (x650_750, x600_650) 0.00009992, 0.00009992, 0.99920064, 0.00009992, 0.00009992, 0.00009992, 0.00009992, 0.00009992, 0.00009992;
  (x750_950, x600_650) 0.00009992, 0.00009992, 0.00009992, 0.99920064, 0.00009992, 0.00009992, 0.00009992, 0.00009992, 0.00009992;
  (x950_1150, x600_650) 0.00009992, 0.00009992, 0.00009992, 0.00009992, 0.00009992, 0.00009992, 0.99920064, 0.00009992, 0.00009992;
  (x_1150, x600_650) 0.00009992, 0.00009992, 0.00009992, 0.00009992, 0.00009992, 0.00009992, 0.00009992, 0.00009992, 0.99920064;
  (x_350, x650_700) 0.99920064, 0.00009992, 0.00009992, 0.00009992, 0.00009992, 0.00009992, 0.00009992, 0.00009992, 0.00009992;
  (x350_450, x650_700) 0.99920064, 0.00009992, 0.00009992, 0.00009992, 0.00009992, 0.00009992, 0.00009992, 0.00009992, 0.00009992;
  (x450_550, x650_700) 0.00009992, 0.99920064, 0.00009992, 0.00009992, 0.00009992, 0.00009992, 0.00009992, 0.00009992, 0.00009992;
  (x550_650, x650_700) 0.00009992, 0.00009992, 0.99920064, 0.00009992, 0.00009992, 0.00009992, 0.00009992, 0.00009992, 0.00009992;
  (x650_750, x650_700) 0.00009992, 0.00009992, 0.99920064, 0.00009992, 0.00009992, 0.00009992, 0.00009992, 0.00009992, 0.00009992;
  (x750_950, x650_700) 0.00009992, 0.00009992, 0.00009992, 0.00009992, 0.99920064, 0.00009992, 0.00009992, 0.00009992, 0.00009992;
  (x950_1150, x650_700) 0.00009992, 0.00009992, 0.00009992, 0.00009992, 0.00009992, 0.00009992, 0.00009992, 0.99920064, 0.00009992;
  (x_1150, x650_700) 0.00009992, 0.00009992, 0.00009992, 0.00009992, 0.00009992, 0.00009992, 0.00009992, 0.00009992, 0.99920064;
  (x_350, x700_750) 0.99920064, 0.00009992, 0.00009992, 0.00009992, 0.00009992, 0.00009992, 0.00009992, 0.00009992, 0.00009992;
  (x350_450, x700_750) 0.99920064, 0.00009992, 0.00009992, 0.00009992, 0.00009992, 0.00009992, 0.00009992, 0.00009992, 0.00009992;
  (x450_550, x700_750) 0.00009992, 0.99920064, 0.00009992, 0.00009992, 0.00009992, 0.00009992, 0.00009992, 0.00009992, 0.00009992;
  (x550_650, x700_750) 0.00009992, 0.00009992, 0.99920064, 0.00009992, 0.00009992, 0.00009992, 0.00009992, 0.00009992, 0.00009992;
  (x650_750, x700_750) 0.00009992, 0.00009992, 0.00009992, 0.99920064, 0.00009992, 0.00009992, 0.00009992, 0.00009992, 0.00009992;
  (x750_950, x700_750) 0.00009992, 0.00009992, 0.00009992, 0.00009992, 0.00009992, 0.99920064, 0.00009992, 0.00009992, 0.00009992;
  (x950_1150, x700_750) 0.00009992, 0.00009992, 0.00009992, 0.00009992, 0.00009992, 0.00009992, 0.00009992, 0.99920064, 0.00009992;
  (x_1150, x700_750) 0.00009992, 0.00009992, 0.00009992, 0.00009992, 0.00009992, 0.00009992, 0.00009992, 0.00009992, 0.99920064;
  (x_350, x750_850) 0.99920064, 0.00009992, 0.00009992, 0.00009992, 0.00009992, 0.00009992, 0.00009992, 0.00009992, 0.00009992;
  (x350_450, x750_850) 0.00009992, 0.99920064, 0.00009992, 0.00009992, 0.00009992, 0.00009992, 0.00009992, 0.00009992, 0.00009992;
  (x450_550, x750_850) 0.00009993, 0.49965024, 0.49965024, 0.00009993, 0.00009993, 0.00009993, 0.00009993, 0.00009993, 0.00009993;
  (x550_650, x750_850) 0.00009992, 0.00009992, 0.99920064, 0.00009992, 0.00009992, 0.00009992, 0.00009992, 0.00009992, 0.00009992;
  (x650_750, x750_850) 0.00009992, 0.00009992, 0.00009992, 0.00009992, 0.99920064, 0.00009992, 0.00009992, 0.00009992, 0.00009992;
  (x750_950, x750_850) 0.00009992, 0.00009992, 0.00009992, 0.00009992, 0.00009992, 0.00009992, 0.99920064, 0.00009992, 0.00009992;
  (x950_1150, x750_850) 0.00009992, 0.00009992, 0.00009992, 0.00009992, 0.00009992, 0.00009992, 0.00009992, 0.00009992, 0.99920064;
  (x_1150, x750_850) 0.00009992, 0.00009992, 0.00009992, 0.00009992, 0.00009992, 0.00009992, 0.00009992, 0.00009992, 0.99920064;
  (x_350, x850_950) 0.99920064, 0.00009992, 0.00009992, 0.00009992, 0.00009992, 0.00009992, 0.00009992, 0.00009992, 0.00009992;
  (x350_450, x850_950) 0.00009992, 0.99920064, 0.00009992, 0.00009992, 0.00009992, 0.00009992, 0.00009992, 0.00009992, 0.00009992;
  (x450_550, x850_950) 0.00009992, 0.00009992, 0.99920064, 0.00009992, 0.00009992, 0.00009992, 0.00009992, 0.00009992, 0.00009992;
  (x550_650, x850_950) 0.00009992, 0.00009992, 0.00009992, 0.99920064, 0.00009992, 0.00009992, 0.00009992, 0.00009992, 0.00009992;
  (x650_750, x850_950) 0.00009992, 0.00009992, 0.00009992, 0.00009992, 0.00009992, 0.99920064, 0.00009992, 0.00009992, 0.00009992;
  (x750_950, x850_950) 0.00009992, 0.00009992, 0.00009992, 0.00009992, 0.00009992, 0.00009992, 0.00009992, 0.99920064, 0.00009992;
  (x950_1150, x850_950) 0.00009992, 0.00009992, 0.00009992, 0.00009992, 0.00009992, 0.00009992, 0.00009992, 0.00009992, 0.99920064;
  (x_1150, x850_950) 0.00009992, 0.00009992, 0.00009992, 0.00009992, 0.00009992, 0.00009992, 0.00009992, 0.00009992, 0.99920064;
  (x_350, x950_1050) 0.99920064, 0.00009992, 0.00009992, 0.00009992, 0.00009992, 0.00009992, 0.00009992, 0.00009992, 0.00009992;
  (x350_450, x950_1050) 0.00009993, 0.49965024, 0.49965024, 0.00009993, 0.00009993, 0.00009993, 0.00009993, 0.00009993, 0.00009993;
  (x450_550, x950_1050) 0.00009993, 0.00009993, 0.49965024, 0.49965024, 0.00009993, 0.00009993, 0.00009993, 0.00009993, 0.00009993;
  (x550_650, x950_1050) 0.00009993, 0.00009993, 0.00009993, 0.00009993, 0.49965024, 0.49965024, 0.00009993, 0.00009993, 0.00009993;
  (x650_750, x950_1050) 0.00009993, 0.00009993, 0.00009993, 0.00009993, 0.00009993, 0.00009993, 0.49965024, 0.49965024, 0.00009993;
  (x750_950, x950_1050) 0.00009992, 0.00009992, 0.00009992, 0.00009992, 0.00009992, 0.00009992, 0.00009992, 0.00009992, 0.99920064;
  (x950_1150, x950_1050) 0.00009992, 0.00009992, 0.00009992, 0.00009992, 0.00009992, 0.00009992, 0.00009992, 0.00009992, 0.99920064;
  (x_1150, x950_1050) 0.00009992, 0.00009992, 0.00009992, 0.00009992, 0.00009992, 0.00009992, 0.00009992, 0.00009992, 0.99920064;
  (x_350, x_1050) 0.00009992, 0.99920064, 0.00009992, 0.00009992, 0.00009992, 0.00009992, 0.00009992, 0.00009992, 0.00009992;
  (x350_450, x_1050) 0.00009992, 0.00009992, 0.99920064, 0.00009992, 0.00009992, 0.00009992, 0.00009992, 0.00009992, 0.00009992;
  (x450_550, x_1050) 0.00009992, 0.00009992, 0.00009992, 0.00009992, 0.99920064, 0.00009992, 0.00009992, 0.00009992, 0.00009992;
  (x550_650, x_1050) 0.00009992, 0.00009992, 0.00009992, 0.00009992, 0.00009992, 0.00009992, 0.99920064, 0.00009992, 0.00009992;
  (x650_750, x_1050) 0.00009992, 0.00009992, 0.00009992, 0.00009992, 0.00009992, 0.00009992, 0.00009992, 0.00009992, 0.99920064;
  (x750_950, x_1050) 0.00009992, 0.00009992, 0.00009992, 0.00009992, 0.00009992, 0.00009992, 0.00009992, 0.00009992, 0.99920064;
  (x950_1150, x_1050) 0.00009992, 0.00009992, 0.00009992, 0.00009992, 0.00009992, 0.00009992, 0.00009992, 0.00009992, 0.99920064;
  (x_1150, x_1050) 0.00009992, 0.00009992, 0.00009992, 0.00009992, 0.00009992, 0.00009992, 0.00009992, 0.00009992, 0.99920064;
}
probability ( spndx | ntilg, ksort ){
(x_75, x_85) 0.00009997, 0.00009997, 0.00009997, 0.99970009;
(x75_90, x_85) 0.00009997, 0.00009997, 0.00009997, 0.99970009;
(x90_105, x_85) 0.00009997, 0.00009997, 0.00009997, 0.99970009;
(x105_120, x_85) 0.00009997, 0.00009997, 0.00009997, 0.99970009;
(x120_135, x_85) 0.00009997, 0.00009997, 0.00009997, 0.99970009;
(x135_150, x_85) 0.00009997, 0.00009997, 0.00009997, 0.99970009;
(x150_165, x_85) 0.00009997, 0.00009997, 0.00009997, 0.99970009;
(x165_180, x_85) 0.00009997, 0.00009997, 0.00009997, 0.99970009;
(x180_195, x_85) 0.00009997, 0.00009997, 0.00009997, 0.99970009;
(x_195, x_85) 0.00009997, 0.00009997, 0.00009997, 0.99970009;
(x_75, x85_90) 0.00009997, 0.00009997, 0.00009997, 0.99970009;
(x75_90, x85_90) 0.00009997, 0.00009997, 0.00009997, 0.99970009;
(x90_105, x85_90) 0.00009997, 0.00009997, 0.00009997, 0.99970009;
(x105_120, x85_90) 0.00009997, 0.00009997, 0.00009997, 0.99970009;
(x120_135, x85_90) 0.00009997, 0.00009997, 0.00009997, 0.99970009;
(x135_150, x85_90) 0.00009997, 0.00009997, 0.00009997, 0.99970009;
(x150_165, x85_90) 0.00009997, 0.00009997, 0.00009997, 0.99970009;
(x165_180, x85_90) 0.00009997, 0.00009997, 0.00009997, 0.99970009;
(x180_195, x85_90) 0.00009997, 0.00009997, 0.00009997, 0.99970009;
(x_195, x85_90) 0.00009997, 0.00009997, 0.00009997, 0.99970009;
(x_75, x90_95) 0.00009997, 0.00009997, 0.00009997, 0.99970009;
(x75_90, x90_95) 0.00009997, 0.00009997, 0.00009997, 0.99970009;
(x90_105, x90_95) 0.00009997, 0.00009997, 0.00009997, 0.99970009;
(x105_120, x90_95) 0.00009997, 0.00009997, 0.00009997, 0.99970009;
(x120_135, x90_95) 0.00009997, 0.00009997, 0.00009997, 0.99970009;
(x135_150, x90_95) 0.00009997, 0.00009997, 0.00009997, 0.99970009;
(x150_165, x90_95) 0.00009997, 0.00009997, 0.00009997, 0.99970009;
(x165_180, x90_95) 0.00009997, 0.00009997, 0.00009997, 0.99970009;
(x180_195, x90_95) 0.00009997, 0.00009997, 0.00009997, 0.99970009;
(x_195, x90_95) 0.00009997, 0.00009997, 0.00009997, 0.99970009;
(x_75, x95_98) 0.00009997, 0.00009997, 0.00009997, 0.99970009;
(x75_90, x95_98) 0.00009997, 0.00009997, 0.00009997, 0.99970009;
(x90_105, x95_98) 0.00009997, 0.00009997, 0.00009997, 0.99970009;
(x105_120, x95_98) 0.00009997, 0.00009997, 0.00009997, 0.99970009;
(x120_135, x95_98) 0.00009997, 0.00009997, 0.00009997, 0.99970009;
(x135_150, x95_98) 0.00009997, 0.00009997, 0.00009997, 0.99970009;
(x150_165, x95_98) 0.00009997, 0.00009997, 0.00009997, 0.99970009;
(x165_180, x95_98) 0.00009997, 0.00009997, 0.00009997, 0.99970009;
(x180_195, x95_98) 0.00009997, 0.00009997, 0.00009997, 0.99970009;
(x_195, x95_98) 0.00009997, 0.00009997, 0.00009997, 0.99970009;
(x_75, x_98) 0.00009997, 0.00009997, 0.00009997, 0.99970009;
(x75_90, x_98) 0.00009997, 0.00009997, 0.00009997, 0.99970009;
(x90_105, x_98) 0.00009997, 0.00009997, 0.00009997, 0.99970009;
(x105_120, x_98) 0.00009997, 0.00009997, 0.00009997, 0.99970009;
(x120_135, x_98) 0.00009997, 0.00009997, 0.00009997, 0.99970009;
(x135_150, x_98) 0.00009997, 0.00009997, 0.00009997, 0.99970009;
(x150_165, x_98) 0.00009997, 0.00009997, 0.00009997, 0.99970009;
(x165_180, x_98) 0.00009997, 0.00009997, 0.00009997, 0.99970009;
(x180_195, x_98) 0.00009997, 0.00009997, 0.00009997, 0.99970009;
(x_195, x_98) 0.00009997, 0.00009997, 0.00009997, 0.99970009;
}
probability ( tkv | aks_m2, keraks, ntilg ){
(x_350, x_13, x_75) 0.0020, 0.2227, 0.3943, 0.2944, 0.0788, 0.0075, 0.0002, 0.0001;
(x350_450, x_13, x_75) 0.00649870, 0.35062987, 0.39872026, 0.20415917, 0.03739252, 0.00239952, 0.00009998, 0.00009998;
(x450_550, x_13, x_75) 0.01489702, 0.46350730, 0.36402719, 0.13787243, 0.01859628, 0.00089982, 0.00009998, 0.00009998;
(x550_650, x_13, x_75) 0.03139686, 0.57044296, 0.30416958, 0.08509149, 0.00839916, 0.00029997, 0.00009999, 0.00009999;
(x650_750, x_13, x_75) 0.06078784, 0.65496901, 0.23245351, 0.04799040, 0.00349930, 0.00009998, 0.00009998, 0.00009998;
(x750_950, x_13, x_75) 0.14017197, 0.71025794, 0.13137373, 0.01709658, 0.00079984, 0.00009998, 0.00009998, 0.00009998;
(x950_1150, x_13, x_75) 0.32450265, 0.62711187, 0.04478656, 0.00319904, 0.00009997, 0.00009997, 0.00009997, 0.00009997;
(x_1150, x_13, x_75) 0.62751175, 0.36489053, 0.00699790, 0.00019994, 0.00009997, 0.00009997, 0.00009997, 0.00009997;
(x_350, x13_15, x_75) 0.00819918, 0.38106189, 0.39246075, 0.18508149, 0.03119688, 0.00179982, 0.00009999, 0.00009999;
(x350_450, x13_15, x_75) 0.02229554, 0.52119577, 0.33513297, 0.10827834, 0.01239752, 0.00049990, 0.00009998, 0.00009998;
(x450_550, x13_15, x_75) 0.04479104, 0.61837633, 0.26724655, 0.06378724, 0.00539892, 0.00019996, 0.00009998, 0.00009998;
